svm_type c_svc
kernel_type rbf
gamma 1
nr_class 2
total_sv 915
rho -0.9613313941198552
label 0 1
nr_sv 426 489
SV
-10.000000 1:-0.162411 2:-0.240763 3:-0.093552 4:-0.179136 5:0.076335 6:1.934576 7:-0.071094 8:-0.047415 9:0.840749
-10.000000 1:-0.162369 2:-0.229242 3:-0.092953 4:-0.140060 5:0.426596 6:-0.525767 7:-0.067638 8:-0.087598 9:0.928426
-10.000000 1:-0.163556 2:-0.204656 3:-0.092782 4:-0.131436 5:0.185707 6:-0.541130 7:-0.069206 8:-0.240405 9:0.928426
-10.000000 1:-0.154503 2:-0.054763 3:-0.092696 4:-0.162819 5:0.035992 6:0.185287 7:-0.055294 8:0.833408 9:0.928426
-10.000000 1:-0.163281 2:-0.206637 3:-0.093210 4:-0.175256 5:0.294439 6:-0.636305 7:-0.069206 8:0.005147 9:0.559411
-10.000000 1:-0.162835 2:-0.412276 3:-0.092439 4:-0.086638 5:0.526359 6:-0.573913 7:-0.077950 8:-0.510666 9:-1.153766
-10.000000 1:-0.162199 2:-0.410146 3:-0.092782 4:-0.123141 5:0.086553 6:-0.577197 7:-0.072691 8:0.331740 9:0.921692
-10.000000 1:-0.163471 2:-0.351212 3:-0.093552 4:-0.197126 5:0.338830 6:2.924647 7:-0.063563 8:-0.653675 9:0.928121
-10.000000 1:-0.157832 2:-0.188667 3:-0.092867 4:-0.178391 5:-0.272386 6:0.704448 7:-0.051764 8:0.594816 9:-1.154943
-10.000000 1:-0.162857 2:-0.333434 3:-0.093295 4:-0.197191 5:0.410909 6:-0.605952 7:-0.065135 8:-0.676356 9:0.928426
-10.000000 1:-0.162220 2:-0.295638 3:-0.092097 4:-0.107700 5:-0.240964 6:-0.504842 7:-0.064037 8:0.345807 9:0.928426
-10.000000 1:-0.158807 2:-0.206207 3:-0.093124 4:-0.173350 5:0.275545 6:0.845522 7:-0.077847 8:-0.202243 9:-0.862303
-10.000000 1:-0.162326 2:-0.294574 3:-0.092525 4:-0.187861 5:0.688412 6:-0.606595 7:-0.065060 8:0.433295 9:0.928426
-10.000000 1:-0.162475 2:-0.305142 3:-0.092097 4:-0.156790 5:0.973981 6:-0.598492 7:-0.077835 8:-1.069342 9:-1.154943
-10.000000 1:-0.161542 2:-0.191073 3:-0.093552 4:-0.183842 5:0.136449 6:-0.606673 7:-0.068931 8:-0.060615 9:0.928426
-10.000000 1:-0.161648 2:-0.085524 3:-0.092696 4:-0.116045 5:-0.256115 6:-0.500996 7:-0.068569 8:0.257115 9:0.928426
-10.000000 1:-0.163111 2:-0.464762 3:-0.093210 4:-0.133109 5:0.723601 6:-0.551224 7:-0.077847 8:-1.030033 9:-0.805367
-4.772752 1:-0.152064 2:0.699087 3:-0.092439 4:-0.153110 5:-0.031249 6:0.399860 7:-0.058713 8:0.337925 9:-1.154943
-10.000000 1:-0.161542 2:-0.110270 3:-0.093039 4:-0.162952 5:-0.010939 6:-0.373770 7:-0.065935 8:0.621634 9:0.928426
-10.000000 1:-0.162305 2:-0.062525 3:-0.093552 4:-0.137979 5:0.342960 6:-0.636305 7:-0.065502 8:-0.933636 9:-0.864093
-10.000000 1:-0.162899 2:-0.247668 3:-0.092268 4:-0.101423 5:0.461688 6:-0.429288 7:-0.065353 8:0.022063 9:0.928426
-10.000000 1:-0.163344 2:-0.250190 3:-0.093381 4:-0.175856 5:-0.015053 6:-0.531346 7:-0.067766 8:0.546559 9:-0.368551
-10.000000 1:-0.157535 2:-0.101186 3:-0.092525 4:-0.158814 5:-0.023215 6:0.550036 7:-0.075687 8:-0.385987 9:-0.805367
-10.000000 1:-0.163577 2:-0.504370 3:-0.093552 4:-0.206168 5:0.967994 6:1.461736 7:-0.078037 8:-1.237451 9:-0.362803
-10.000000 1:-0.163620 2:-0.207416 3:-0.093638 4:-0.201799 5:0.146571 6:-0.516830 7:-0.069332 8:-0.572264 9:0.928426
-10.000000 1:-0.161902 2:-0.065226 3:-0.093124 4:-0.160518 5:0.321664 6:-0.554924 7:-0.063529 8:0.046075 9:0.928426
-10.000000 1:-0.162475 2:-0.103501 3:-0.093210 4:-0.151124 5:-0.193709 6:-0.556655 7:-0.067442 8:-0.036397 9:0.928426
-10.000000 1:-0.162878 2:-0.192760 3:-0.093638 4:-0.204121 5:0.285897 6:-0.440136 7:-0.068352 8:0.157783 9:0.928426
-10.000000 1:-0.161266 2:-0.218526 3:-0.093124 4:-0.200922 5:0.129195 6:0.451392 7:-0.069492 8:-0.102476 9:0.912592
-10.000000 1:-0.162369 2:-0.293001 3:-0.092097 4:-0.154725 5:0.923741 6:-0.600194 7:-0.077858 8:-1.023672 9:-1.154943
-10.000000 1:-0.105843 2:1.401011 3:-0.092439 4:-0.140446 5:-0.505704 6:-0.291130 7:-0.057604 8:-0.368091 9:0.928426
-10.000000 1:-0.159061 2:0.004846 3:-0.092867 4:-0.163205 5:0.321526 6:2.483332 7:-0.074195 8:0.248742 9:0.928426
-10.000000 1:-0.162369 2:-0.258273 3:-0.093295 4:-0.185390 5:0.251584 6:-0.592521 7:-0.067636 8:-0.841568 9:0.920742
-10.000000 1:-0.162199 2:-0.291355 3:-0.093210 4:-0.158169 5:0.215900 6:-0.534670 7:-0.061715 8:0.121799 9:0.928426
-3.469542 1:-0.163090 2:-0.441661 3:-0.091583 4:-0.140948 5:1.494181 6:-0.607435 7:-0.078920 8:-0.760910 9:-0.883260
-10.000000 1:-0.035091 2:-0.000553 3:-0.093895 4:-0.148264 5:0.186891 6:-0.636305 7:-0.065502 8:-2.074901 9:-0.805367
-10.000000 1:-0.162623 2:-0.266015 3:-0.093295 4:-0.199301 5:0.382523 6:-0.600019 7:-0.065270 8:0.183867 9:0.928426
-10.000000 1:-0.162475 2:-0.215559 3:-0.092439 4:-0.160331 5:0.735371 6:-0.590652 7:-0.068504 8:-0.260285 9:-1.154943
-10.000000 1:-0.162793 2:-0.256523 3:-0.092353 4:-0.151284 5:0.198813 6:-0.258636 7:-0.062636 8:-0.091358 9:0.928426
-10.000000 1:-0.157704 2:-0.152889 3:-0.092867 4:-0.179570 5:-0.137320 6:1.060938 7:-0.062293 8:0.678559 9:-1.154943
-10.000000 1:-0.154588 2:-0.056901 3:-0.092782 4:-0.143579 5:0.138480 6:-0.369117 7:-0.064101 8:0.419102 9:0.928426
-10.000000 1:-0.162602 2:-0.322992 3:-0.092439 4:-0.133374 5:0.310664 6:-0.595615 7:-0.062418 8:0.350258 9:0.928426
-10.000000 1:-0.162963 2:-0.367220 3:-0.093381 4:-0.164961 5:0.969404 6:-0.579617 7:-0.079006 8:-0.666106 9:-0.805367
-10.000000 1:-0.161690 2:-0.243067 3:-0.093467 4:-0.210191 5:0.443807 6:-0.600821 7:-0.063994 8:0.450338 9:0.928426
-4.882842 1:-0.161351 2:-0.459732 3:-0.092182 4:-0.133713 5:0.251183 6:-0.633416 7:-0.039178 8:-0.396329 9:-1.154943
-10.000000 1:-0.161627 2:-0.179885 3:-0.092953 4:-0.166409 5:0.013157 6:0.067304 7:-0.065256 8:0.577209 9:0.928426
-10.000000 1:-0.160863 2:-0.268640 3:-0.093381 4:-0.200928 5:0.181686 6:-0.617634 7:-0.067498 8:-0.639721 9:0.928426
-10.000000 1:-0.160651 2:-0.205836 3:-0.092953 4:-0.169070 5:0.236781 6:1.788643 7:-0.076252 8:-0.044917 9:0.928426
-10.000000 1:-0.160503 2:-0.089448 3:-0.092268 4:-0.154465 5:0.453728 6:-0.624546 7:-0.069509 8:0.262077 9:0.928426
-10.000000 1:-0.159994 2:-0.155260 3:-0.093295 4:-0.186791 5:0.020808 6:-0.585488 7:-0.062717 8:0.548225 9:0.928426
-10.000000 1:-0.161054 2:-0.197557 3:-0.093210 4:-0.172329 5:0.378734 6:-0.346383 7:-0.064011 8:0.609567 9:0.928426
-10.000000 1:-0.158468 2:0.210303 3:-0.093039 4:-0.151961 5:0.196360 6:1.581521 7:-0.064734 8:0.327340 9:0.928426
-10.000000 1:-0.162538 2:-0.238827 3:-0.092696 4:-0.117353 5:0.607043 6:-0.580524 7:-0.062831 8:0.046362 9:0.928426
-10.000000 1:-0.164235 2:-0.451028 3:-0.093895 4:-0.140788 5:2.931969 6:0.112408 7:-0.076366 8:-2.389077 9:-0.805367
-10.000000 1:-0.163811 2:-0.577652 3:-0.093381 4:-0.093733 5:-0.591381 6:-0.551224 7:-0.053570 8:-1.406716 9:0.928426
-10.000000 1:-0.161054 2:-0.163341 3:-0.092867 4:-0.172609 5:0.902500 6:-0.615508 7:-0.074674 8:0.618849 9:-1.154941
-10.000000 1:-0.162263 2:-0.357063 3:-0.093381 4:-0.204244 5:0.125675 6:1.940710 7:-0.076891 8:-0.165381 9:0.735351
-10.000000 1:-0.161478 2:-0.245018 3:-0.092011 4:-0.129765 5:0.216596 6:-0.405435 7:-0.063837 8:0.600662 9:0.928426
-10.000000 1:-0.160291 2:0.034304 3:-0.089784 4:-0.008661 5:-0.333791 6:-0.636305 7:-0.069576 8:0.517044 9:0.928396
-10.000000 1:-0.161245 2:-0.284989 3:-0.092953 4:-0.184695 5:0.062104 6:1.340297 7:-0.075342 8:-0.012828 9:0.703638
-10.000000 1:-0.161945 2:-0.246191 3:-0.089442 4:0.034360 5:-1.085571 6:-0.511520 7:-0.069123 8:0.216942 9:-1.154943
-9.199215 1:-0.161309 2:0.009287 3:-0.091925 4:-0.111625 5:-0.036540 6:-0.636305 7:-0.069382 8:-0.418603 9:-1.062633
-10.000000 1:-0.160567 2:-0.250668 3:-0.092782 4:-0.165561 5:-0.108502 6:-0.601514 7:-0.065465 8:0.680900 9:0.928426
-10.000000 1:-0.160439 2:-0.236338 3:-0.092782 4:-0.155934 5:0.496499 6:-0.627012 7:-0.064426 8:0.238984 9:0.928376
-10.000000 1:-0.156517 2:-0.310443 3:-0.093295 4:-0.173308 5:0.318152 6:-0.618920 7:-0.059235 8:-0.406591 9:0.923578
-10.000000 1:-0.162602 2:0.056781 3:-0.093552 4:-0.233544 5:0.445389 6:0.299586 7:-0.072292 8:-1.352467 9:-0.805367
-10.000000 1:-0.157323 2:-0.199252 3:-0.091583 4:-0.187730 5:0.094813 6:-0.200183 7:-0.070029 8:-0.202619 9:0.928426
-10.000000 1:-0.160143 2:-0.210451 3:-0.093210 4:-0.191564 5:0.728122 6:-0.231238 7:-0.060691 8:-0.349042 9:-1.154943
-10.000000 1:-0.162751 2:-0.246017 3:-0.092953 4:-0.183854 5:0.428944 6:3.396192 7:-0.076637 8:0.125796 9:0.841780
-10.000000 1:-0.163005 2:-0.287986 3:-0.093638 4:-0.196646 5:0.054055 6:-0.541930 7:-0.066860 8:-0.359203 9:0.592370
-10.000000 1:-0.159888 2:-0.205188 3:-0.092782 4:-0.162492 5:0.214447 6:-0.619518 7:-0.064357 8:0.645284 9:0.928426
-10.000000 1:-0.157832 2:0.183880 3:-0.093381 4:-0.180355 5:1.013495 6:-0.262986 7:-0.067037 8:0.183178 9:0.928426
-10.000000 1:-0.161669 2:-0.211493 3:-0.092696 4:-0.154141 5:-0.448914 6:0.563089 7:-0.068897 8:0.559915 9:-1.154943
-10.000000 1:-0.161054 2:-0.242107 3:-0.092953 4:-0.110833 5:0.171735 6:-0.590183 7:-0.066907 8:0.351235 9:0.928426
-10.000000 1:-0.160757 2:-0.249746 3:-0.092782 4:-0.157507 5:0.047661 6:-0.607916 7:-0.062963 8:0.590176 9:0.928426
-10.000000 1:-0.153400 2:0.162128 3:-0.091668 4:-0.120443 5:0.066781 6:0.795797 7:-0.054187 8:0.554676 9:-1.154943
-10.000000 1:-0.162454 2:-0.281488 3:-0.093039 4:-0.147211 5:0.457870 6:-0.550246 7:-0.060459 8:-0.086559 9:0.928426
-10.000000 1:-0.163132 2:-0.332659 3:-0.092011 4:-0.129337 5:0.173000 6:-0.555509 7:-0.065804 8:0.034286 9:0.928426
-10.000000 1:-0.162560 2:-0.277942 3:-0.092353 4:-0.145435 5:0.022097 6:-0.135574 7:-0.068897 8:0.617235 9:-1.154943
-10.000000 1:-0.161754 2:-0.163737 3:-0.092696 4:-0.135790 5:0.281247 6:-0.122902 7:-0.070132 8:0.588217 9:-1.102349
-10.000000 1:-0.161712 2:-0.334070 3:-0.092867 4:-0.155423 5:0.627083 6:-0.633024 7:-0.064283 8:0.394509 9:0.928426
-10.000000 1:-0.164044 2:-0.328871 3:-0.093552 4:-0.192086 5:1.101748 6:0.968079 7:-0.073650 8:-1.551867 9:-0.805367
-10.000000 1:-0.157747 2:-0.165045 3:-0.092696 4:-0.144898 5:0.030643 6:-0.176291 7:-0.060392 8:0.471229 9:0.928426
-10.000000 1:-0.162729 2:-0.305740 3:-0.092782 4:-0.173203 5:0.080356 6:1.214908 7:-0.069635 8:0.259736 9:0.922150
-10.000000 1:-0.162263 2:-0.239318 3:-0.093210 4:-0.198943 5:0.132297 6:-0.599723 7:-0.066093 8:0.017174 9:0.928423
-10.000000 1:-0.162623 2:-0.259114 3:-0.090127 4:0.013660 5:-1.321191 6:-0.368908 7:-0.069576 8:0.415473 9:-1.154943
-10.000000 1:-0.161203 2:-0.211730 3:-0.093210 4:-0.179515 5:0.108419 6:1.310725 7:-0.066808 8:0.293015 9:0.928426
-10.000000 1:-0.162941 2:-0.162588 3:-0.092953 4:-0.186039 5:0.156184 6:-0.582051 7:-0.078137 8:0.264806 9:0.918927
-10.000000 1:-0.162644 2:-0.413349 3:-0.092353 4:-0.170963 5:0.070173 6:-0.604309 7:-0.063719 8:0.022935 9:0.928426
-10.000000 1:-0.161606 2:-0.098321 3:-0.093724 4:-0.199101 5:0.302889 6:-0.503135 7:-0.067011 8:-0.111290 9:0.927817
-10.000000 1:-0.142545 2:0.547273 3:-0.093381 4:-0.159079 5:0.853367 6:-0.605109 7:-0.063413 8:-0.809034 9:-1.154943
-10.000000 1:-0.163789 2:-0.290541 3:-0.093210 4:-0.194959 5:-0.461486 6:-0.261949 7:-0.071322 8:-0.564632 9:0.439590
-10.000000 1:-0.163175 2:-0.565935 3:-0.093638 4:-0.240039 5:0.120508 6:-0.602580 7:-0.077668 8:-0.792430 9:0.928423
-10.000000 1:-0.157471 2:-0.095894 3:-0.092696 4:-0.145191 5:-0.026473 6:-0.354696 7:-0.064843 8:0.695375 9:0.928426
-2.767468 1:-0.164065 2:-0.567304 3:-0.093895 4:-0.153339 5:3.882870 6:-0.535128 7:-0.078497 8:-2.156581 9:-1.152947
-10.000000 1:-0.159803 2:-0.189270 3:-0.092782 4:-0.166114 5:0.150043 6:-0.424406 7:-0.064565 8:0.393725 9:0.928426
-10.000000 1:-0.158256 2:0.200505 3:-0.093039 4:-0.189572 5:0.310731 6:0.571777 7:-0.068473 8:0.353646 9:0.928426
-10.000000 1:-0.162093 2:-0.337397 3:-0.093295 4:-0.177449 5:0.050604 6:-0.636305 7:-0.059415 8:0.650784 9:0.928426
-10.000000 1:-0.162496 2:-0.137799 3:-0.092268 4:-0.128951 5:-0.387194 6:-0.488533 7:-0.068754 8:-0.385319 9:0.928426
-8.379264 1:-0.162475 2:-0.269028 3:-0.092525 4:-0.152654 5:-0.224130 6:1.415456 7:-0.067766 8:0.487538 9:-1.154943
-10.000000 1:-0.163069 2:-0.242360 3:-0.091497 4:-0.084255 5:-0.026290 6:-0.636305 7:-0.067200 8:-0.328266 9:-0.187754
-10.000000 1:-0.161669 2:-0.246449 3:-0.090298 4:-0.142639 5:0.123738 6:-0.596196 7:-0.064835 8:0.209347 9:0.262752
-10.000000 1:-0.162475 2:-0.314266 3:-0.092439 4:-0.171196 5:0.019384 6:-0.605952 7:-0.064891 8:0.046441 9:0.928426
-10.000000 1:-0.162687 2:-0.232703 3:-0.093039 4:-0.142755 5:0.261833 6:-0.574257 7:-0.066834 8:-0.297455 9:0.928426
-10.000000 1:-0.162411 2:-0.327727 3:-0.088928 4:-0.046865 5:-0.632067 6:-0.611677 7:-0.066947 8:0.778383 9:0.928426
-10.000000 1:-0.163217 2:-0.204200 3:-0.092782 4:-0.155018 5:-0.457478 6:-0.411692 7:-0.070934 8:0.665771 9:-0.906931
-10.000000 1:-0.163217 2:-0.274215 3:-0.093724 4:-0.143763 5:0.171335 6:-0.606357 7:-0.064580 8:-0.319038 9:0.928426
-10.000000 1:-0.159931 2:-0.267015 3:-0.091411 4:-0.156182 5:-0.215092 6:-0.598810 7:-0.073504 8:0.679272 9:0.928426
-10.000000 1:-0.163493 2:-0.287421 3:-0.093638 4:-0.181917 5:0.297631 6:-0.636305 7:-0.066093 8:-0.414728 9:0.173517
-10.000000 1:-0.162941 2:-0.274452 3:-0.092696 4:-0.134509 5:0.108879 6:-0.590652 7:-0.068976 8:0.104059 9:0.928209
-10.000000 1:-0.162008 2:-0.240692 3:-0.093467 4:-0.195088 5:0.418551 6:-0.462635 7:-0.065377 8:0.244458 9:0.928426
-10.000000 1:-0.157492 2:-0.141109 3:-0.092782 4:-0.176589 5:0.533870 6:-0.247176 7:-0.065107 8:0.286459 9:-1.154943
-5.373459 1:-0.159019 2:0.038823 3:-0.093210 4:-0.181361 5:0.486396 6:2.515165 7:-0.071477 8:-0.014248 9:-1.154939
-10.000000 1:-0.162475 2:-0.199214 3:-0.093295 4:-0.145562 5:0.556297 6:-0.535128 7:-0.066311 8:-0.088540 9:0.928426
-1.964244 1:-0.137647 2:-0.693604 3:-0.093895 4:-0.188357 5:4.188101 6:16.209737 7:-0.024766 8:-5.064085 9:-0.805367
-10.000000 1:-0.163047 2:-0.242514 3:-0.093124 4:-0.166953 5:0.633434 6:-0.275962 7:-0.065684 8:-0.137053 9:0.928419
-10.000000 1:-0.161054 2:-0.225784 3:-0.093381 4:-0.204226 5:-0.086545 6:-0.575599 7:-0.066589 8:-0.491053 9:0.928426
-10.000000 1:-0.162644 2:-0.239777 3:-0.090298 4:0.010853 5:-1.303791 6:-0.432111 7:-0.069576 8:-0.022498 9:-1.154943
-10.000000 1:-0.161606 2:-0.335474 3:-0.092268 4:-0.134493 5:-0.093640 6:-0.510538 7:-0.068939 8:0.036598 9:0.928426
-0.110302 1:-0.160736 2:0.049104 3:-0.092953 4:-0.134347 5:-0.021714 6:3.019176 7:-0.074903 8:0.655597 9:-1.154943
-10.000000 1:-0.162305 2:-0.238853 3:-0.092268 4:-0.169704 5:-0.013513 6:1.817809 7:-0.071753 8:-0.090778 9:0.637091
-10.000000 1:-0.162666 2:-0.263824 3:-0.091069 4:-0.113127 5:0.123477 6:-0.564772 7:-0.066787 8:0.579368 9:0.928426
-10.000000 1:-0.161733 2:-0.040103 3:-0.093467 4:-0.153147 5:1.419834 6:1.360740 7:-0.079015 8:-0.714415 9:-0.805367
-10.000000 1:-0.162793 2:-0.178207 3:-0.093638 4:-0.209054 5:0.037247 6:-0.148014 7:-0.060976 8:-0.120740 9:0.330432
-10.000000 1:-0.162220 2:-0.118777 3:-0.093210 4:-0.168670 5:0.784711 6:0.895153 7:-0.065502 8:-0.096639 9:-1.154856
-10.000000 1:-0.161669 2:-0.248772 3:-0.093039 4:-0.186502 5:0.357527 6:-0.504180 7:-0.063480 8:0.341868 9:0.928426
-10.000000 1:-0.163556 2:-0.090652 3:-0.093467 4:-0.180455 5:-0.095916 6:-0.636305 7:-0.074555 8:-1.185481 9:-1.154229
-10.000000 1:-0.162263 2:-0.369237 3:-0.093467 4:-0.188190 5:-0.336699 6:-0.528318 7:-0.059008 8:-0.637577 9:0.928426
-10.000000 1:-0.162644 2:-0.221467 3:-0.093381 4:-0.181487 5:0.012958 6:-0.298540 7:-0.067864 8:0.369707 9:0.928426
-10.000000 1:-0.162984 2:-0.268245 3:-0.093381 4:-0.153438 5:0.711092 6:-0.521119 7:-0.065733 8:0.239028 9:0.928426
-10.000000 1:-0.161690 2:-0.123526 3:-0.093724 4:-0.189020 5:0.164996 6:-0.612257 7:-0.066824 8:-0.661715 9:0.928426
-10.000000 1:-0.163005 2:-0.220081 3:-0.093552 4:-0.137200 5:-0.175435 6:-0.534208 7:-0.068697 8:0.328190 9:0.927663
-10.000000 1:-0.162454 2:-0.249853 3:-0.093552 4:-0.185020 5:-0.062413 6:-0.608158 7:-0.066978 8:-0.689038 9:0.928426
-10.000000 1:-0.163408 2:-0.391070 3:-0.093210 4:-0.026801 5:1.672931 6:-0.561267 7:-0.070505 8:-0.467902 9:0.928426
-10.000000 1:-0.164129 2:-0.288662 3:-0.093638 4:-0.117335 5:-0.550477 6:-0.636305 7:-0.065502 8:-2.669900 9:0.027377
-10.000000 1:-0.162411 2:-0.293765 3:-0.093467 4:-0.181695 5:0.273707 6:-0.277879 7:-0.063525 8:0.013769 9:0.928426
-10.000000 1:-0.161521 2:-0.232060 3:-0.092439 4:-0.125475 5:-0.198109 6:-0.552338 7:-0.063065 8:0.056711 9:0.928426
-9.388932 1:-0.161330 2:-0.249298 3:-0.093467 4:-0.188635 5:0.061460 6:1.819473 7:-0.075577 8:0.018407 9:-1.085548
-10.000000 1:-0.162157 2:-0.219426 3:-0.093552 4:-0.195410 5:0.861151 6:-0.623991 7:-0.071873 8:-1.079386 9:-1.154943
-10.000000 1:-0.162920 2:-0.203694 3:-0.093210 4:-0.127791 5:0.024210 6:-0.360141 7:-0.065201 8:0.241994 9:0.928426
-10.000000 1:-0.162687 2:-0.326362 3:-0.092953 4:-0.102452 5:-0.084606 6:-0.612662 7:-0.062108 8:0.533682 9:-0.278272
-10.000000 1:-0.160418 2:-0.119539 3:-0.093210 4:-0.185510 5:0.424199 6:-0.427735 7:-0.068246 8:0.339945 9:0.928426
-10.000000 1:-0.154948 2:-0.169558 3:-0.092953 4:-0.176285 5:0.547801 6:-0.335157 7:-0.066999 8:0.292555 9:-1.154943
-10.000000 1:-0.161224 2:-0.261543 3:-0.091154 4:-0.137114 5:0.034756 6:-0.561009 7:-0.064491 8:0.636000 9:0.928426
-10.000000 1:-0.161775 2:-0.252217 3:-0.093467 4:-0.191076 5:-0.031142 6:1.517920 7:-0.075978 8:-0.017347 9:0.773465
-10.000000 1:-0.159422 2:0.009650 3:-0.093210 4:-0.183948 5:0.250591 6:1.609834 7:-0.071322 8:0.256614 9:0.928426
-10.000000 1:-0.162263 2:-0.282166 3:-0.092696 4:-0.155032 5:0.067452 6:-0.607801 7:-0.063239 8:-0.300050 9:0.928426
-10.000000 1:-0.159549 2:-0.093043 3:-0.092525 4:-0.145266 5:0.146212 6:1.001504 7:-0.074144 8:-0.390126 9:-0.805367
-10.000000 1:-0.162051 2:-0.183754 3:-0.093467 4:-0.185952 5:0.157744 6:-0.482460 7:-0.069023 8:-0.202961 9:0.927551
-10.000000 1:-0.156983 2:-0.120124 3:-0.092182 4:-0.099244 5:-0.075983 6:-0.279775 7:-0.065000 8:0.721435 9:0.894275
-10.000000 1:-0.162051 2:-0.193638 3:-0.092525 4:-0.140582 5:-0.195977 6:-0.432111 7:-0.069382 8:-0.337855 9:0.741683
-10.000000 1:-0.162326 2:-0.230049 3:-0.093210 4:-0.190722 5:0.336684 6:-0.618365 7:-0.068110 8:0.521154 9:0.928426
-10.000000 1:-0.159634 2:-0.245624 3:-0.093552 4:-0.195040 5:-0.305401 6:0.960215 7:-0.050294 8:0.635911 9:-1.154943
-10.000000 1:-0.161054 2:-0.289002 3:-0.093295 4:-0.170560 5:0.157058 6:-0.561212 7:-0.061878 8:0.054032 9:0.928426
-10.000000 1:-0.163493 2:-0.269925 3:-0.093552 4:-0.177492 5:0.228938 6:-0.636305 7:-0.066737 8:-0.455985 9:-0.318821
-10.000000 1:-0.162305 2:-0.225274 3:-0.092525 4:-0.069015 5:0.413188 6:-0.578859 7:-0.065064 8:0.363951 9:0.928426
-10.000000 1:-0.163620 2:-0.229041 3:-0.092782 4:-0.168095 5:-0.311676 6:-0.375127 7:-0.070934 8:-0.346319 9:0.860495
-10.000000 1:-0.162475 2:-0.254840 3:-0.093467 4:-0.212092 5:0.117775 6:-0.619493 7:-0.065791 8:-0.073255 9:0.928426
-10.000000 1:-0.162581 2:-0.217482 3:-0.093724 4:-0.219397 5:0.188184 6:3.419223 7:-0.073364 8:-0.474087 9:-1.152191
-10.000000 1:-0.162411 2:-0.331405 3:-0.092097 4:-0.088214 5:-0.185111 6:-0.482460 7:-0.062225 8:0.258970 9:0.928426
-10.000000 1:-0.161309 2:-0.084285 3:-0.093295 4:-0.162039 5:0.218964 6:2.157400 7:-0.075687 8:0.123676 9:-0.977601
-10.000000 1:-0.162835 2:-0.167173 3:-0.093381 4:-0.227658 5:0.642838 6:-0.355538 7:-0.077573 8:-1.361129 9:-1.007518
-10.000000 1:-0.160037 2:-0.147753 3:-0.092696 4:-0.151080 5:0.037385 6:-0.453196 7:-0.062817 8:0.225776 9:0.928426
-10.000000 1:-0.161309 2:-0.247261 3:-0.092953 4:-0.181484 5:0.234192 6:1.048299 7:-0.074736 8:-0.203040 9:-0.805367
-7.292357 1:-0.163111 2:-0.410754 3:-0.093039 4:-0.123431 5:-0.019410 6:1.329066 7:-0.079081 8:-0.977856 9:-0.805367
-10.000000 1:-0.164129 2:-0.603246 3:-0.093467 4:-0.095541 5:0.849523 6:-0.557769 7:-0.078709 8:-0.943500 9:-0.805367
-10.000000 1:-0.162984 2:-0.357815 3:-0.092610 4:-0.135372 5:2.015411 6:-0.268086 7:-0.071160 8:0.118508 9:0.927911
-10.000000 1:-0.163090 2:-0.228409 3:-0.092867 4:-0.145267 5:0.188462 6:-0.538363 7:-0.070897 8:-0.117155 9:0.928426
-10.000000 1:-0.160609 2:-0.004326 3:-0.093124 4:-0.186059 5:0.275632 6:-0.586342 7:-0.071029 8:0.458807 9:0.928426
-10.000000 1:-0.160948 2:-0.109412 3:-0.093039 4:-0.152106 5:0.004461 6:-0.585488 7:-0.066563 8:0.215465 9:0.928426
-9.185492 1:-0.162263 2:-0.290032 3:-0.093381 4:-0.184391 5:-0.115688 6:-0.543233 7:-0.061623 8:0.401530 9:0.928426
-10.000000 1:-0.161394 2:-0.251100 3:-0.092525 4:-0.181234 5:0.107039 6:-0.611568 7:-0.062050 8:0.545363 9:0.928426
-10.000000 1:-0.162772 2:-0.266791 3:-0.092953 4:-0.182036 5:0.342706 6:-0.536919 7:-0.065679 8:0.094184 9:0.928426
-10.000000 1:-0.162369 2:-0.342176 3:-0.092953 4:-0.177083 5:0.080185 6:-0.457473 7:-0.061770 8:0.235004 9:0.928426
-10.000000 1:-0.162114 2:-0.285643 3:-0.092696 4:-0.144527 5:-0.181603 6:0.205997 7:-0.061982 8:0.672448 9:-1.154943
-10.000000 1:-0.162941 2:-0.127322 3:-0.093552 4:-0.142961 5:1.057964 6:-0.473542 7:-0.064497 8:-0.643271 9:0.928426
-10.000000 1:-0.161309 2:-0.144832 3:-0.093039 4:-0.181469 5:0.280199 6:-0.320583 7:-0.065272 8:-0.003960 9:0.928426
-5.813343 1:-0.162751 2:-0.345267 3:-0.092867 4:-0.181648 5:-0.584863 6:1.058894 7:-0.065502 8:0.284567 9:-1.154943
-10.000000 1:-0.162348 2:-0.179637 3:-0.093381 4:-0.123525 5:1.126394 6:-0.636305 7:-0.069836 8:0.025355 9:0.928426
-10.000000 1:-0.160397 2:-0.085607 3:-0.092867 4:-0.148002 5:-0.086448 6:-0.598619 7:-0.066991 8:0.335043 9:0.928426
-10.000000 1:-0.162729 2:-0.307875 3:-0.093039 4:-0.199104 5:0.153379 6:-0.636305 7:-0.064533 8:0.171492 9:0.923323
-10.000000 1:-0.162751 2:-0.299397 3:-0.093552 4:-0.224147 5:-0.339284 6:-0.367307 7:-0.066181 8:-0.723884 9:0.928411
-10.000000 1:-0.162390 2:-0.215666 3:-0.093039 4:-0.185252 5:0.124372 6:-0.636305 7:-0.063824 8:-0.091523 9:0.928426
-10.000000 1:-0.162432 2:-0.227238 3:-0.093210 4:-0.142123 5:0.499552 6:2.608118 7:-0.062532 8:-0.039897 9:-1.154943
-10.000000 1:-0.162517 2:-0.256204 3:-0.092011 4:-0.120776 5:-0.235576 6:-0.495334 7:-0.064704 8:-0.145156 9:0.928426
-10.000000 1:-0.163493 2:-0.576352 3:-0.093124 4:-0.186608 5:1.383192 6:-0.613799 7:-0.078171 8:-2.004550 9:0.068488
-10.000000 1:-0.162941 2:-0.297269 3:-0.089784 4:0.063914 5:-1.131464 6:-0.636305 7:-0.060976 8:-0.160431 9:-0.586859
-10.000000 1:-0.161012 2:-0.142989 3:-0.093124 4:-0.173351 5:0.125256 6:0.735325 7:-0.066102 8:0.602771 9:0.928426
-10.000000 1:-0.161902 2:-0.175274 3:-0.092439 4:-0.151986 5:0.100200 6:-0.158404 7:-0.068089 8:0.811215 9:0.011754
-10.000000 1:-0.162496 2:-0.375956 3:-0.093039 4:-0.183642 5:0.856228 6:-0.591915 7:-0.074109 8:0.676572 9:0.928373
-10.000000 1:-0.163768 2:-0.495166 3:-0.093467 4:-0.181602 5:0.033947 6:-0.355538 7:-0.055803 8:-0.971944 9:0.928423
-7.110410 1:-0.164277 2:-0.295880 3:-0.093895 4:-0.217715 5:0.120541 6:3.107260 7:-0.070029 8:-2.495706 9:-0.530045
-10.000000 1:-0.159358 2:-0.119708 3:-0.092867 4:-0.184549 5:0.504070 6:0.586329 7:-0.067558 8:0.189369 9:-1.154943
-10.000000 1:-0.162623 2:-0.107561 3:-0.092867 4:-0.180308 5:-1.263942 6:-0.187078 7:-0.070934 8:-1.227445 9:0.651521
-10.000000 1:-0.161606 2:-0.202190 3:-0.093381 4:-0.184438 5:0.267263 6:-0.636305 7:-0.066683 8:-0.223056 9:0.928357
-10.000000 1:-0.160312 2:-0.335170 3:-0.093124 4:-0.163530 5:0.024484 6:-0.599118 7:-0.059701 8:0.116747 9:0.928426
-10.000000 1:-0.161584 2:-0.107590 3:-0.093638 4:-0.141184 5:0.820237 6:0.809230 7:-0.064980 8:-0.329871 9:0.928426
-10.000000 1:-0.161309 2:-0.181165 3:-0.089784 4:-0.023236 5:-0.700526 6:-0.571761 7:-0.068218 8:0.399602 9:0.193055
-10.000000 1:-0.162093 2:-0.242083 3:-0.093381 4:-0.175511 5:0.336563 6:-0.592436 7:-0.061305 8:0.175384 9:0.928426
-10.000000 1:-0.161457 2:-0.127211 3:-0.093295 4:-0.192010 5:-0.056764 6:1.805150 7:-0.074555 8:-0.317805 9:-1.034862
-10.000000 1:-0.160418 2:-0.182222 3:-0.093552 4:-0.192939 5:0.495955 6:1.475449 7:-0.077788 8:-0.041240 9:-1.061681
-10.000000 1:-0.162305 2:-0.337535 3:-0.092782 4:-0.133501 5:0.267010 6:-0.372449 7:-0.065079 8:0.228599 9:0.928426
-10.000000 1:-0.163705 2:-0.221490 3:-0.093809 4:-0.202935 5:0.338830 6:-0.636305 7:-0.060976 8:-0.934208 9:-0.852194
-10.000000 1:-0.163450 2:-0.305195 3:-0.093039 4:-0.199220 5:0.496407 6:-0.494145 7:-0.071537 8:-0.561059 9:0.926011
-10.000000 1:-0.161754 2:-0.270710 3:-0.093295 4:-0.183169 5:0.296823 6:-0.595907 7:-0.063132 8:0.229844 9:0.928426
-10.000000 1:-0.160800 2:-0.269209 3:-0.093210 4:-0.175783 5:0.157991 6:-0.620465 7:-0.064077 8:0.875001 9:0.928426
-10.000000 1:-0.163259 2:-0.202353 3:-0.093467 4:-0.212417 5:-0.090471 6:0.227594 7:-0.062787 8:-0.488867 9:-0.762924
-1.377367 1:-0.163832 2:-0.323190 3:-0.093295 4:-0.163290 5:0.158524 6:2.910230 7:-0.076366 8:-0.402712 9:-1.139018
-10.000000 1:-0.161775 2:-0.294828 3:-0.092182 4:-0.146161 5:0.176585 6:-0.608229 7:-0.072526 8:0.602656 9:0.928426
-0.516948 1:-0.122529 2:-0.693604 3:-0.093895 4:-0.188357 5:4.205081 6:-0.636305 7:-0.051924 8:-4.919453 9:-0.805367
-10.000000 1:-0.160630 2:-0.189572 3:-0.092953 4:-0.177014 5:0.260097 6:1.920276 7:-0.076331 8:-0.096046 9:0.926980
-10.000000 1:-0.161966 2:-0.336533 3:-0.092696 4:-0.174376 5:0.097950 6:0.078857 7:-0.066683 8:0.659665 9:-1.154943
-10.000000 1:-0.161012 2:-0.185262 3:-0.092696 4:-0.131120 5:0.093460 6:-0.596992 7:-0.061582 8:0.115360 9:0.928426
-10.000000 1:-0.158574 2:-0.221697 3:-0.093467 4:-0.200618 5:0.160857 6:-0.506607 7:-0.066533 8:-0.222670 9:0.928426
-10.000000 1:-0.160567 2:-0.246203 3:-0.092182 4:-0.204647 5:-0.057259 6:-0.578228 7:-0.068963 8:-0.309174 9:0.928426
-10.000000 1:-0.160037 2:-0.175098 3:-0.092011 4:-0.132964 5:-0.133208 6:2.602976 7:-0.070158 8:0.848556 9:-1.154943
-10.000000 1:-0.163111 2:-0.219665 3:-0.093381 4:-0.190949 5:0.750505 6:-0.074771 7:-0.076366 8:-0.964486 9:-0.805367
-10.000000 1:-0.159634 2:-0.269766 3:-0.092439 4:-0.154532 5:0.296635 6:-0.469854 7:-0.065299 8:0.647779 9:0.928426
-10.000000 1:-0.162326 2:-0.159889 3:-0.092953 4:-0.161013 5:0.359795 6:2.641135 7:-0.073825 8:-0.069761 9:-1.111034
-10.000000 1:-0.161924 2:-0.228430 3:-0.092525 4:-0.134707 5:0.113692 6:-0.610066 7:-0.066779 8:0.734953 9:0.928426
-10.000000 1:-0.161394 2:-0.222371 3:-0.093124 4:-0.197222 5:-0.189232 6:-0.519562 7:-0.066080 8:-0.460323 9:0.928421
-10.000000 1:-0.156814 2:-0.054801 3:-0.093467 4:-0.177531 5:0.106323 6:-0.607583 7:-0.063668 8:0.403531 9:0.928426
-10.000000 1:-0.161584 2:-0.261548 3:-0.093039 4:-0.172717 5:0.344420 6:0.850110 7:-0.079081 8:-0.671692 9:-0.805367
-10.000000 1:-0.160143 2:-0.159470 3:-0.092867 4:-0.163173 5:0.256122 6:-0.399870 7:-0.065902 8:0.378400 9:0.928426
-10.000000 1:-0.158892 2:-0.063646 3:-0.092696 4:-0.133354 5:-0.174158 6:-0.143731 7:-0.053158 8:0.035772 9:0.928426
-10.000000 1:-0.163111 2:-0.326103 3:-0.092867 4:-0.176592 5:0.402747 6:-0.570243 7:-0.073397 8:0.822354 9:-1.154943
-10.000000 1:-0.162496 2:-0.223753 3:-0.092182 4:-0.094936 5:-0.096532 6:-0.552243 7:-0.065372 8:0.055671 9:0.928426
-10.000000 1:-0.162496 2:-0.249146 3:-0.091754 4:-0.043403 5:-0.421773 6:-0.529346 7:-0.065091 8:0.024253 9:0.927201
-10.000000 1:-0.162411 2:-0.207009 3:-0.093039 4:-0.176662 5:-0.042646 6:1.030751 7:-0.067011 8:0.635940 9:0.919611
-10.000000 1:-0.162560 2:-0.344797 3:-0.093381 4:-0.197888 5:0.151688 6:-0.616358 7:-0.065569 8:-0.312930 9:0.928426
-10.000000 1:-0.163175 2:-0.217281 3:-0.093039 4:-0.133526 5:-0.206068 6:-0.587263 7:-0.070969 8:-0.426686 9:0.928426
-10.000000 1:-0.162687 2:-0.235592 3:-0.093467 4:-0.212990 5:-0.160241 6:-0.533272 7:-0.067313 8:-0.571732 9:0.928426
-10.000000 1:-0.162390 2:-0.308258 3:-0.092953 4:-0.164324 5:0.039958 6:-0.610897 7:-0.066129 8:0.213937 9:0.928426
-10.000000 1:-0.129696 2:0.729426 3:-0.093124 4:-0.172848 5:0.100851 6:1.131758 7:-0.060976 8:0.386528 9:-1.154943
-10.000000 1:-0.162220 2:-0.207434 3:-0.093039 4:-0.156337 5:0.815516 6:-0.618221 7:-0.068649 8:-0.281048 9:-1.154943
-10.000000 1:-0.161139 2:-0.254231 3:-0.093638 4:-0.157886 5:0.610516 6:-0.563966 7:-0.064803 8:0.245519 9:0.928426
-10.000000 1:-0.158574 2:-0.168550 3:-0.093210 4:-0.189886 5:0.000276 6:-0.462428 7:-0.064035 8:-0.014868 9:0.928426
-10.000000 1:-0.160800 2:-0.231356 3:-0.093381 4:-0.175959 5:0.626518 6:-0.245673 7:-0.057036 8:0.169775 9:-1.154943
-10.000000 1:-0.163344 2:-0.199934 3:-0.093381 4:-0.177748 5:0.103106 6:-0.587476 7:-0.071467 8:0.087590 9:0.928426
-10.000000 1:-0.162242 2:-0.315527 3:-0.093381 4:-0.190892 5:0.402384 6:-0.598106 7:-0.061109 8:0.343073 9:0.928426
-10.000000 1:-0.163132 2:-0.304349 3:-0.092782 4:-0.177833 5:0.066353 6:-0.500450 7:-0.064480 8:-0.369339 9:0.928426
-10.000000 1:-0.162835 2:0.083096 3:-0.092782 4:-0.075110 5:-0.037718 6:0.299586 7:-0.072292 8:-0.836756 9:-0.805367
-10.000000 1:-0.163069 2:-0.342888 3:-0.093467 4:-0.179626 5:0.685686 6:-0.636305 7:-0.061324 8:-0.433273 9:-1.026081
-10.000000 1:-0.154270 2:0.307979 3:-0.093210 4:-0.168442 5:0.083166 6:1.299326 7:-0.070975 8:0.269706 9:0.928426
-10.000000 1:-0.164044 2:-0.386172 3:-0.093809 4:-0.210164 5:1.482529 6:0.299586 7:-0.075202 8:-1.661535 9:-0.805367
-10.000000 1:-0.161860 2:-0.214891 3:-0.093467 4:-0.201005 5:0.594229 6:-0.568786 7:-0.064838 8:0.155539 9:0.928426
-10.000000 1:-0.162348 2:-0.229981 3:-0.092610 4:-0.136593 5:-0.103659 6:0.395085 7:-0.066005 8:-0.312662 9:0.928426
-10.000000 1:-0.161118 2:-0.134104 3:-0.093295 4:-0.172196 5:0.166474 6:1.609834 7:-0.065818 8:-0.051659 9:0.928421
-10.000000 1:-0.162581 2:-0.292928 3:-0.092525 4:-0.142006 5:0.266933 6:-0.520525 7:-0.066379 8:0.225410 9:0.928426
-1.424758 1:-0.163620 2:-0.010125 3:-0.093724 4:-0.194990 5:-0.158424 6:-0.636305 7:-0.072292 8:-1.058367 9:-1.148820
-2.495782 1:-0.158277 2:-0.133688 3:-0.092867 4:-0.174664 5:-0.174239 6:1.448434 7:-0.066701 8:0.647919 9:-1.154943
-10.000000 1:-0.162666 2:-0.237891 3:-0.089613 4:0.041079 5:-0.740869 6:-0.539489 7:-0.069146 8:0.112798 9:0.918688
-2.708223 1:0.096555 2:-0.693604 3:-0.092696 4:-0.121273 5:-0.194717 6:-0.628907 7:-0.051924 8:-0.568737 9:-0.805367
-10.000000 1:-0.163047 2:-0.307423 3:-0.092610 4:-0.077345 5:1.011269 6:-0.579079 7:-0.062761 8:0.269042 9:0.928426
-10.000000 1:-0.162136 2:-0.284954 3:-0.093552 4:-0.270282 5:-0.682192 6:-0.636305 7:-0.078967 8:-2.158534 9:0.749095
-10.000000 1:-0.162199 2:-0.265329 3:-0.089099 4:-0.097514 5:-0.140284 6:-0.541665 7:-0.063599 8:0.219169 9:0.928426
-10.000000 1:-0.161436 2:-0.492572 3:-0.092268 4:-0.159638 5:-0.609762 6:-0.609872 7:-0.075227 8:-2.322377 9:0.928426
-10.000000 1:-0.155626 2:-0.137693 3:-0.060582 4:0.394901 5:0.858771 6:-0.552156 7:-0.061220 8:0.289610 9:0.928426
-10.000000 1:-0.162072 2:-0.230931 3:-0.092867 4:-0.157080 5:-0.166528 6:-0.542716 7:-0.063480 8:-0.122408 9:0.928426
-10.000000 1:-0.163281 2:-0.165711 3:-0.093295 4:-0.198085 5:-0.182589 6:-0.495922 7:-0.068697 8:-0.225808 9:0.927409
-10.000000 1:-0.162284 2:-0.266221 3:-0.092525 4:-0.152464 5:0.123042 6:-0.285822 7:-0.065000 8:-0.012172 9:0.928426
-10.000000 1:-0.162348 2:-0.241294 3:-0.093638 4:-0.175671 5:0.127135 6:-0.455165 7:-0.064268 8:0.506450 9:0.878179
-5.587928 1:-0.163471 2:-0.212530 3:-0.093552 4:-0.222511 5:0.027303 6:-0.505716 7:-0.071795 8:-0.168340 9:0.191953
-10.000000 1:-0.150368 2:0.010901 3:-0.092439 4:-0.167271 5:-0.236856 6:1.307632 7:-0.065142 8:0.319570 9:0.884985
-10.000000 1:-0.160100 2:-0.090011 3:-0.092525 4:-0.156674 5:0.150970 6:1.127192 7:-0.077723 8:-0.351963 9:-0.805367
-10.000000 1:-0.163408 2:-0.454051 3:-0.092696 4:-0.174308 5:-0.106251 6:-0.636305 7:-0.078920 8:-1.546026 9:0.265427
-10.000000 1:-0.160906 2:-0.035624 3:-0.092953 4:-0.156546 5:0.225948 6:2.010660 7:-0.069763 8:0.183326 9:0.928426
-10.000000 1:-0.163069 2:-0.421546 3:-0.093295 4:-0.159961 5:0.224228 6:-0.486563 7:-0.054782 8:-0.632833 9:0.928426
-10.000000 1:-0.162941 2:-0.334926 3:-0.092353 4:-0.106803 5:0.898739 6:-0.223172 7:-0.068415 8:-0.216691 9:0.928426
-8.879598 1:-0.159740 2:-0.153438 3:-0.092953 4:-0.172623 5:-0.043235 6:0.013555 7:-0.059697 8:0.699046 9:-1.154943
-10.000000 1:-0.161521 2:-0.163000 3:-0.092696 4:-0.143389 5:-0.039997 6:0.486764 7:-0.063106 8:0.682367 9:-1.154943
-10.000000 1:-0.161521 2:-0.222884 3:-0.093210 4:-0.173575 5:0.276221 6:2.178936 7:-0.073007 8:0.081933 9:-0.767191
-10.000000 1:-0.162899 2:-0.340277 3:-0.092353 4:-0.131713 5:0.596127 6:-0.499858 7:-0.062708 8:0.316931 9:-0.329969
-10.000000 1:-0.161754 2:-0.187685 3:-0.092696 4:-0.146761 5:0.040123 6:-0.605239 7:-0.069552 8:0.219698 9:0.928426
-10.000000 1:-0.163281 2:-0.260992 3:-0.092867 4:-0.152543 5:0.133457 6:-0.522288 7:-0.063861 8:-0.268269 9:0.928426
-10.000000 1:-0.159782 2:0.011657 3:-0.092610 4:-0.115223 5:-0.140610 6:0.077351 7:-0.061246 8:0.318364 9:0.928426
-10.000000 1:-0.161563 2:-0.269341 3:-0.093295 4:-0.186349 5:0.115695 6:-0.615274 7:-0.067093 8:0.706963 9:0.928426
-10.000000 1:-0.161796 2:-0.246334 3:-0.093124 4:-0.166939 5:0.070253 6:0.767531 7:-0.065360 8:0.162908 9:-0.682598
-8.271847 1:-0.162030 2:-0.198655 3:-0.089784 4:-0.010762 5:-0.953386 6:-0.533272 7:-0.067766 8:0.184470 9:0.928409
-10.000000 1:-0.162051 2:-0.229410 3:-0.092867 4:-0.177648 5:0.229541 6:-0.586391 7:-0.066841 8:0.264286 9:0.928426
-10.000000 1:-0.163365 2:0.123624 3:-0.092268 4:-0.097973 5:-1.102370 6:1.609834 7:-0.079081 8:-1.429505 9:-0.493930
-10.000000 1:-0.156432 2:0.140153 3:-0.092610 4:-0.157823 5:-0.259841 6:1.247055 7:-0.072313 8:0.924348 9:-1.154943
-10.000000 1:-0.162899 2:-0.312226 3:-0.092268 4:-0.112079 5:0.236896 6:-0.373086 7:-0.069496 8:-0.189869 9:0.928426
-10.000000 1:-0.163747 2:-0.044348 3:-0.093724 4:-0.176569 5:-0.244143 6:0.968079 7:-0.070029 8:-1.421051 9:-0.177168
-10.000000 1:-0.159231 2:-0.030419 3:-0.093381 4:-0.165720 5:0.141256 6:0.831172 7:-0.067682 8:0.306152 9:0.928334
-4.665786 1:-0.159825 2:-0.160847 3:-0.093295 4:-0.205818 5:0.875408 6:-0.533481 7:-0.064369 8:-0.056819 9:-1.154943
-10.000000 1:-0.163705 2:-0.391635 3:-0.093638 4:-0.203234 5:1.235783 6:-0.235209 7:-0.076992 8:-0.905377 9:-0.912918
-10.000000 1:-0.162305 2:-0.062525 3:-0.093552 4:-0.137979 5:0.342960 6:-0.636305 7:-0.065502 8:-0.933636 9:-0.864093
-10.000000 1:-0.163832 2:-0.511490 3:-0.093467 4:-0.234699 5:1.281108 6:-0.636305 7:-0.055803 8:-1.709840 9:0.928423
-10.000000 1:-0.160588 2:-0.168128 3:-0.093210 4:-0.193358 5:0.031425 6:-0.608779 7:-0.066834 8:-0.017850 9:0.928426
-10.000000 1:-0.160185 2:-0.272170 3:-0.093210 4:-0.180033 5:1.209540 6:-0.596621 7:-0.078709 8:-0.977083 9:-1.046323
-10.000000 1:-0.163026 2:-0.246375 3:-0.093039 4:-0.184593 5:-0.015340 6:-0.515545 7:-0.062787 8:-0.266532 9:0.928426
-10.000000 1:-0.161966 2:-0.245034 3:-0.092610 4:-0.166896 5:-0.028361 6:0.621075 7:-0.064145 8:0.553591 9:-1.154943
-10.000000 1:-0.160376 2:-0.093792 3:-0.093039 4:-0.192978 5:0.326353 6:-0.597429 7:-0.068867 8:0.292399 9:0.928426
-10.000000 1:-0.160927 2:-0.289534 3:-0.092782 4:-0.138393 5:0.242304 6:-0.630872 7:-0.061995 8:-0.009024 9:0.928426
-10.000000 1:-0.161521 2:-0.072770 3:-0.092953 4:-0.153018 5:0.382094 6:2.718603 7:-0.074841 8:0.139222 9:0.928426
-10.000000 1:-0.159803 2:-0.109158 3:-0.091240 4:-0.143178 5:0.546824 6:2.232228 7:-0.067175 8:0.406143 9:0.928426
-10.000000 1:-0.161839 2:-0.221534 3:-0.092696 4:-0.147606 5:-0.533538 6:1.084527 7:-0.071839 8:0.538771 9:-1.154943
-0.952897 1:-0.163874 2:-0.538956 3:-0.093467 4:-0.193608 5:4.110706 6:-0.636305 7:-0.078527 8:-5.676083 9:-0.805367
-10.000000 1:-0.162793 2:-0.252072 3:-0.092182 4:-0.117992 5:-0.149800 6:-0.428330 7:-0.064580 8:-0.127489 9:0.928426
-10.000000 1:-0.163408 2:-0.306001 3:-0.092867 4:-0.184778 5:-0.062462 6:-0.458040 7:-0.068017 8:-0.513842 9:0.113401
-10.000000 1:-0.161500 2:-0.223673 3:-0.092782 4:-0.180418 5:0.022265 6:-0.572130 7:-0.068589 8:-0.207790 9:0.928426
-10.000000 1:-0.160715 2:-0.173233 3:-0.092867 4:-0.172138 5:0.436161 6:-0.578564 7:-0.065606 8:0.497570 9:0.928426
-9.690737 1:-0.163556 2:-0.359686 3:-0.093809 4:-0.211565 5:0.879881 6:-0.220354 7:-0.075687 8:-1.441241 9:-0.805367
-10.000000 1:-0.162114 2:-0.212718 3:-0.093124 4:-0.153307 5:-0.012192 6:-0.500176 7:-0.062660 8:-0.604585 9:0.928426
-10.000000 1:-0.160863 2:-0.157834 3:-0.093467 4:-0.186680 5:0.324381 6:1.563860 7:-0.059252 8:-0.172321 9:0.928426
-10.000000 1:-0.162263 2:-0.286871 3:-0.093467 4:-0.154920 5:-0.169690 6:-0.025942 7:-0.068897 8:0.233055 9:0.880048
-10.000000 1:-0.162963 2:-0.337706 3:-0.092268 4:-0.078421 5:0.164191 6:-0.562902 7:-0.059198 8:-0.298389 9:0.928426
-10.000000 1:-0.161648 2:-0.249281 3:-0.092867 4:-0.176390 5:-0.386844 6:0.611550 7:-0.064458 8:0.790183 9:-1.154943
-10.000000 1:-0.161139 2:-0.296298 3:-0.093295 4:-0.184592 5:0.009904 6:-0.539674 7:-0.062078 8:0.187945 9:0.928426
-10.000000 1:-0.162199 2:-0.491921 3:-0.092353 4:-0.195894 5:0.148629 6:-0.636305 7:-0.055444 8:-0.657049 9:0.928426
-10.000000 1:-0.161394 2:-0.114400 3:-0.093638 4:-0.192794 5:0.533591 6:-0.585199 7:-0.068201 8:0.411396 9:0.928426
-10.000000 1:-0.160863 2:-0.252526 3:-0.093210 4:-0.161692 5:0.089869 6:0.755833 7:-0.060365 8:0.069087 9:0.902281
-10.000000 1:-0.162644 2:-0.212536 3:-0.093552 4:-0.184092 5:0.318488 6:-0.537791 7:-0.064073 8:-0.640723 9:0.928426
-10.000000 1:-0.161054 2:-0.239493 3:-0.092953 4:-0.113428 5:0.183253 6:-0.589898 7:-0.066907 8:0.352835 9:0.928426
-10.000000 1:-0.161839 2:-0.245218 3:-0.092353 4:-0.151827 5:0.704865 6:-0.614625 7:-0.066395 8:0.364568 9:-1.154943
-10.000000 1:-0.161436 2:-0.184343 3:-0.093295 4:-0.178924 5:2.425252 6:-0.636305 7:-0.064852 8:-0.355322 9:0.928426
-10.000000 1:-0.157365 2:-0.114707 3:-0.092525 4:-0.151597 5:-0.114153 6:0.802109 7:-0.075202 8:-0.112802 9:-0.862303
-10.000000 1:-0.162941 2:-0.350938 3:-0.092011 4:-0.155428 5:-0.303738 6:-0.543490 7:-0.067187 8:-0.638128 9:0.928426
-10.000000 1:-0.162814 2:-0.316221 3:-0.091925 4:-0.136291 5:0.963978 6:-0.597844 7:-0.077315 8:-1.089883 9:-1.154943
-10.000000 1:-0.162242 2:-0.276567 3:-0.092953 4:-0.149158 5:0.694314 6:-0.456326 7:-0.063897 8:0.242033 9:0.928426
-10.000000 1:-0.162305 2:-0.024577 3:-0.093039 4:-0.190182 5:-0.657566 6:0.065613 7:-0.065502 8:-0.669094 9:0.211078
-10.000000 1:-0.162644 2:-0.373798 3:-0.092867 4:-0.188538 5:0.102472 6:-0.614666 7:-0.063197 8:-0.134131 9:0.927563
-10.000000 1:-0.161266 2:-0.123250 3:-0.093039 4:-0.184218 5:0.203420 6:0.788237 7:-0.065941 8:0.292971 9:0.927090
-10.000000 1:-0.163535 2:-0.263548 3:-0.092011 4:-0.074998 5:0.712559 6:-0.458040 7:-0.078111 8:-1.256713 9:-0.805367
-10.000000 1:-0.163514 2:-0.377909 3:-0.093638 4:-0.182557 5:2.058718 6:-0.636305 7:-0.076909 8:-0.840040 9:0.818345
-10.000000 1:-0.158234 2:-0.150817 3:-0.093210 4:-0.178415 5:-0.027839 6:-0.600136 7:-0.064966 8:0.071373 9:0.928426
-10.000000 1:-0.162920 2:-0.506062 3:-0.093552 4:-0.157040 5:1.214347 6:-0.636305 7:-0.076366 8:-0.742403 9:0.745183
-10.000000 1:-0.156750 2:0.044855 3:-0.092782 4:-0.148968 5:-0.087255 6:-0.566694 7:-0.067472 8:0.206718 9:0.928426
-10.000000 1:-0.163535 2:-0.304440 3:-0.093381 4:-0.136745 5:1.055089 6:-0.424406 7:-0.074052 8:-0.922323 9:-1.153972
-10.000000 1:-0.159358 2:-0.234168 3:-0.092867 4:-0.159887 5:-0.082780 6:0.590720 7:-0.067864 8:0.467015 9:0.927544
-10.000000 1:-0.162878 2:-0.359265 3:-0.092610 4:-0.092018 5:0.015539 6:-0.407108 7:-0.076064 8:-1.042784 9:-0.805367
-10.000000 1:-0.160461 2:-0.335230 3:-0.093210 4:-0.172526 5:1.083902 6:-0.603940 7:-0.078613 8:-0.883539 9:-1.046323
-10.000000 1:-0.163026 2:-0.193995 3:-0.093039 4:-0.145778 5:-0.123905 6:-0.636305 7:-0.070632 8:-0.638001 9:0.928426
-10.000000 1:-0.162581 2:-0.190479 3:-0.093039 4:-0.184394 5:0.273305 6:-0.580431 7:-0.068361 8:0.223169 9:0.928426
-10.000000 1:-0.163344 2:-0.240242 3:-0.093724 4:-0.170639 5:0.462518 6:-0.549246 7:-0.067165 8:-0.490853 9:0.928426
-10.000000 1:-0.161563 2:-0.256538 3:-0.089613 4:-0.006058 5:0.275433 6:-0.636305 7:-0.054013 8:0.380946 9:0.928426
-10.000000 1:-0.161669 2:-0.231185 3:-0.092696 4:-0.124977 5:0.083853 6:-0.441178 7:-0.063515 8:0.740361 9:0.928426
-10.000000 1:-0.162242 2:-0.228991 3:-0.093638 4:-0.235751 5:0.602527 6:-0.599604 7:-0.078693 8:-1.013958 9:0.928198
-10.000000 1:-0.162369 2:-0.275331 3:-0.093295 4:-0.187954 5:0.384619 6:-0.607656 7:-0.063703 8:0.689936 9:0.928426
-10.000000 1:-0.159379 2:-0.118568 3:-0.093210 4:-0.175121 5:0.218239 6:1.020520 7:-0.072874 8:-0.165559 9:0.550669
-10.000000 1:-0.161669 2:-0.219461 3:-0.093467 4:-0.211648 5:0.111616 6:-0.554449 7:-0.065595 8:0.255894 9:0.928426
-10.000000 1:-0.160842 2:-0.181090 3:-0.093210 4:-0.178492 5:0.392143 6:2.164076 7:-0.070725 8:-0.016494 9:0.908319
-10.000000 1:-0.162963 2:-0.263646 3:-0.093467 4:-0.157137 5:0.363383 6:-0.489818 7:-0.066895 8:0.300227 9:0.928426
-10.000000 1:-0.160185 2:0.178027 3:-0.093039 4:-0.155156 5:0.348786 6:0.921710 7:-0.068822 8:0.196024 9:0.928426
-10.000000 1:-0.162772 2:-0.277272 3:-0.093124 4:-0.135685 5:0.818711 6:-0.378552 7:-0.066845 8:-0.071599 9:0.928426
-10.000000 1:-0.162305 2:-0.184644 3:-0.092953 4:-0.142342 5:-0.063393 6:-0.466786 7:-0.067844 8:-0.097460 9:0.920421
-10.000000 1:-0.162369 2:-0.064295 3:-0.093552 4:-0.110316 5:0.234840 6:-0.636305 7:-0.065502 8:-0.740192 9:-0.807437
-10.000000 1:-0.162030 2:-0.277693 3:-0.093210 4:-0.196738 5:-0.103054 6:-0.451184 7:-0.068331 8:0.201236 9:0.928426
-10.000000 1:-0.161457 2:-0.204474 3:-0.092867 4:-0.134922 5:0.525602 6:-0.486729 7:-0.064528 8:0.228987 9:0.928426
-10.000000 1:-0.162602 2:-0.302054 3:-0.093467 4:-0.202508 5:-0.263620 6:-0.324342 7:-0.071675 8:-0.255770 9:0.928365
-10.000000 1:-0.159931 2:-0.120492 3:-0.093039 4:-0.197752 5:0.230146 6:-0.566858 7:-0.069496 8:0.412445 9:0.928426
-8.241800 1:-0.164235 2:-0.255683 3:-0.093895 4:-0.223932 5:0.189350 6:-0.636305 7:-0.070029 8:-2.690683 9:-0.805367
-10.000000 1:-0.162878 2:0.031249 3:-0.092182 4:-0.108284 5:0.571998 6:-0.521184 7:-0.071518 8:0.238238 9:0.928426
-10.000000 1:-0.162602 2:-0.234003 3:-0.093552 4:-0.187175 5:-0.060113 6:-0.340761 7:-0.070753 8:-0.599392 9:0.761339
-10.000000 1:-0.159634 2:-0.238468 3:-0.093552 4:-0.192773 5:-0.331325 6:0.900857 7:-0.052541 8:0.647189 9:-1.154943
-10.000000 1:-0.162941 2:-0.311475 3:-0.093467 4:-0.203538 5:0.068180 6:-0.592776 7:-0.065287 8:0.399785 9:0.928426
-10.000000 1:-0.163026 2:-0.269854 3:-0.093210 4:-0.201872 5:-0.179893 6:-0.392160 7:-0.069045 8:-0.058077 9:0.928426
-10.000000 1:-0.161648 2:-0.325475 3:-0.093467 4:-0.188565 5:0.041617 6:-0.595016 7:-0.061052 8:0.362152 9:0.928426
-10.000000 1:-0.162051 2:-0.256658 3:-0.092867 4:-0.173369 5:0.280398 6:1.018744 7:-0.064129 8:-0.156966 9:0.031431
-10.000000 1:-0.162793 2:-0.160151 3:-0.093295 4:-0.121822 5:0.368068 6:-0.636305 7:-0.072443 8:0.534430 9:0.928426
-10.000000 1:-0.135018 2:0.144799 3:-0.093895 4:-0.203337 5:2.822757 6:-0.595761 7:-0.070029 8:-3.463854 9:-0.805367
-10.000000 1:-0.163917 2:0.003501 3:-0.093638 4:-0.215046 5:-0.271083 6:-0.636305 7:-0.079081 8:-1.368814 9:-1.068611
-10.000000 1:-0.162305 2:-0.300777 3:-0.092182 4:-0.106099 5:0.147280 6:-0.601996 7:-0.064362 8:0.478820 9:0.928426
-10.000000 1:-0.162814 2:-0.344010 3:-0.093467 4:-0.148240 5:1.112013 6:-0.636305 7:-0.062584 8:-0.508474 9:0.928426
-10.000000 1:-0.161076 2:-0.157683 3:-0.092525 4:-0.150490 5:0.139808 6:1.100400 7:-0.077384 8:-0.414185 9:-0.805367
-10.000000 1:-0.162305 2:-0.207761 3:-0.088928 4:0.065189 5:-1.435839 6:-0.432111 7:-0.069576 8:-0.033498 9:-1.154943
-10.000000 1:-0.162920 2:-0.304769 3:-0.093381 4:-0.186576 5:0.181522 6:-0.573913 7:-0.066709 8:-0.078610 9:0.928426
-8.305433 1:-0.163683 2:-0.031670 3:-0.093895 4:-0.225063 5:1.793567 6:-0.636305 7:-0.070029 8:-1.056491 9:-1.150412
-10.000000 1:-0.156581 2:-0.052862 3:-0.093039 4:-0.147496 5:0.156984 6:-0.497475 7:-0.064226 8:0.406675 9:0.928426
-10.000000 1:-0.161563 2:-0.232655 3:-0.092439 4:-0.144563 5:0.255488 6:-0.580152 7:-0.059483 8:0.784978 9:0.928426
-10.000000 1:-0.162644 2:-0.351047 3:-0.092867 4:-0.117548 5:1.494410 6:0.742903 7:-0.076366 8:-0.472799 9:-0.945890
-10.000000 1:-0.160991 2:-0.166033 3:-0.093638 4:-0.188820 5:0.290049 6:1.455125 7:-0.075809 8:0.776094 9:-0.059868
-10.000000 1:-0.161733 2:-0.240607 3:-0.093467 4:-0.197430 5:0.113783 6:-0.593069 7:-0.063722 8:-0.218596 9:0.928426
-10.000000 1:-0.162030 2:-0.268667 3:-0.092525 4:-0.202850 5:-0.038831 6:-0.527796 7:-0.068131 8:-0.572732 9:0.900777
-10.000000 1:-0.163132 2:-0.137707 3:-0.092525 4:-0.171863 5:-0.882822 6:-0.012378 7:-0.073650 8:-0.797958 9:-0.087542
-10.000000 1:-0.161266 2:-0.250268 3:-0.093039 4:-0.180537 5:0.261730 6:0.943011 7:-0.079081 8:-0.682685 9:-0.805367
-5.607919 1:-0.140297 2:0.922944 3:-0.088585 4:-0.005006 5:-0.875850 6:-0.589315 7:-0.058932 8:1.408702 9:-1.153637
-10.000000 1:-0.159740 2:-0.181424 3:-0.093467 4:-0.195054 5:0.315322 6:0.874256 7:-0.077529 8:-0.367846 9:-0.805367
-10.000000 1:-0.159295 2:-0.188312 3:-0.093039 4:-0.186246 5:0.339295 6:-0.605466 7:-0.065980 8:0.224169 9:0.928426
-10.000000 1:-0.162984 2:-0.287311 3:-0.091583 4:-0.095510 5:-1.350165 6:-0.636305 7:-0.066634 8:-1.418558 9:0.928426
-10.000000 1:-0.161945 2:-0.060026 3:-0.093552 4:-0.191500 5:-0.000151 6:-0.493239 7:-0.072777 8:0.536676 9:-0.813542
-10.000000 1:-0.161839 2:-0.241745 3:-0.093552 4:-0.201028 5:0.141067 6:-0.619443 7:-0.064365 8:-0.396966 9:0.928426
-10.000000 1:-0.163577 2:-0.528228 3:-0.093552 4:-0.145324 5:0.131510 6:-0.615811 7:-0.052178 8:0.365182 9:0.928426
-4.470073 1:-0.058519 2:1.258446 3:-0.091754 4:-0.162748 5:-0.046049 6:-0.629746 7:-0.068335 8:0.234850 9:-1.154943
-10.000000 1:-0.161606 2:-0.272262 3:-0.092953 4:-0.144297 5:0.026997 6:-0.490452 7:-0.063563 8:-0.126882 9:0.928413
-10.000000 1:-0.161478 2:-0.262376 3:-0.092011 4:-0.122750 5:0.328661 6:-0.486336 7:-0.064489 8:0.442411 9:0.928426
-10.000000 1:-0.147951 2:0.064568 3:-0.092525 4:-0.205645 5:0.880047 6:-0.622017 7:-0.062038 8:-0.020566 9:-1.154943
-10.000000 1:-0.159825 2:-0.018108 3:-0.093210 4:-0.159393 5:0.231185 6:3.131412 7:-0.076612 8:0.028275 9:0.928426
-10.000000 1:-0.162157 2:-0.214338 3:-0.088243 4:0.089868 5:-1.466185 6:-0.381062 7:-0.069576 8:-0.469938 9:-1.154943
-10.000000 1:-0.162644 2:-0.258065 3:-0.093039 4:-0.089024 5:0.297792 6:-0.544251 7:-0.064597 8:-0.124311 9:0.912519
-10.000000 1:-0.162602 2:-0.244098 3:-0.092268 4:-0.105317 5:0.298091 6:-0.458242 7:-0.067651 8:0.408375 9:0.928426
-10.000000 1:-0.162602 2:-0.169575 3:-0.093724 4:-0.211825 5:0.479262 6:-0.636305 7:-0.067011 8:-0.337169 9:0.917100
-10.000000 1:-0.162793 2:-0.249763 3:-0.093467 4:-0.178852 5:0.368461 6:-0.466143 7:-0.062787 8:0.070289 9:0.914900
-10.000000 1:-0.162708 2:0.179568 3:-0.093381 4:-0.177666 5:0.383814 6:0.227594 7:-0.073650 8:-1.010204 9:-1.086259
-10.000000 1:-0.161330 2:-0.118565 3:-0.093552 4:-0.205863 5:0.713973 6:-0.536919 7:-0.074289 8:-1.484683 9:0.856753
-10.000000 1:-0.163238 2:-0.364804 3:-0.093467 4:-0.198987 5:0.131097 6:-0.592090 7:-0.064304 8:-0.374083 9:0.928426
-10.000000 1:-0.161648 2:-0.247078 3:-0.093295 4:-0.201339 5:0.017064 6:-0.620330 7:-0.073136 8:-0.412158 9:0.928423
-6.738210 1:-0.160842 2:-0.143636 3:-0.093467 4:-0.204110 5:0.132657 6:3.719843 7:-0.068589 8:-0.889707 9:-1.154864
-10.000000 1:-0.162751 2:-0.189246 3:-0.092182 4:-0.111393 5:0.333761 6:-0.636305 7:-0.071577 8:0.755681 9:0.928426
-10.000000 1:-0.161839 2:-0.301022 3:-0.093381 4:-0.199637 5:0.495885 6:-0.332773 7:-0.069287 8:-0.404424 9:-0.876318
-10.000000 1:-0.163026 2:-0.327386 3:-0.093381 4:-0.160973 5:0.592636 6:0.912756 7:-0.064458 8:0.004642 9:0.927376
-10.000000 1:-0.161436 2:-0.215656 3:-0.093381 4:-0.169410 5:0.079086 6:-0.596267 7:-0.061991 8:0.355099 9:0.928426
-10.000000 1:-0.162644 2:-0.132399 3:-0.093809 4:-0.253368 5:0.516973 6:-0.101510 7:-0.073650 8:-1.316077 9:-0.805367
-10.000000 1:-0.161606 2:-0.215043 3:-0.092867 4:-0.152144 5:0.462440 6:3.761948 7:-0.074555 8:0.379845 9:0.928426
-10.000000 1:-0.162602 2:-0.236775 3:-0.093210 4:-0.183790 5:-0.016331 6:-0.636305 7:-0.063358 8:-0.355769 9:0.928215
-10.000000 1:-0.163153 2:-0.266323 3:-0.093724 4:-0.196744 5:0.323936 6:-0.636305 7:-0.066737 8:-0.672056 9:0.920077
-10.000000 1:-0.161457 2:-0.192647 3:-0.093039 4:-0.168747 5:0.118644 6:-0.563615 7:-0.065826 8:-0.117535 9:0.928426
-10.000000 1:-0.163153 2:-0.267561 3:-0.093381 4:-0.129715 5:0.475745 6:-0.441328 7:-0.063120 8:-0.161184 9:0.928426
-10.000000 1:-0.160609 2:-0.188196 3:-0.093552 4:-0.202917 5:-0.196888 6:-0.598807 7:-0.069187 8:-0.473554 9:0.928426
-10.000000 1:-0.162920 2:-0.106532 3:-0.092353 4:-0.155712 5:-0.457665 6:-0.332773 7:-0.073650 8:0.393642 9:0.925313
-10.000000 1:-0.163196 2:-0.297204 3:-0.093039 4:-0.188650 5:0.070028 6:-0.495922 7:-0.067100 8:-0.020483 9:0.561023
-10.000000 1:-0.161054 2:-0.096876 3:-0.093552 4:-0.203086 5:-0.232904 6:-0.475867 7:-0.061623 8:-0.667320 9:0.914215
-10.000000 1:-0.160524 2:-0.166621 3:-0.093295 4:-0.173585 5:-0.050447 6:-0.450755 7:-0.065343 8:0.290217 9:0.928426
-10.000000 1:-0.154566 2:-0.193130 3:-0.093124 4:-0.192983 5:0.205724 6:-0.630378 7:-0.068051 8:-0.407345 9:0.928426
-10.000000 1:-0.162666 2:-0.227447 3:-0.092867 4:-0.144752 5:-0.229611 6:-0.558315 7:-0.067200 8:-0.209611 9:0.928426
-10.000000 1:-0.162220 2:-0.192404 3:-0.093381 4:-0.210277 5:0.139205 6:-0.598235 7:-0.066811 8:0.072814 9:0.928426
-10.000000 1:-0.162475 2:-0.191437 3:-0.093381 4:-0.154506 5:0.598759 6:3.251243 7:-0.074814 8:0.013557 9:-1.154943
-10.000000 1:-0.160524 2:-0.238149 3:-0.093124 4:-0.196362 5:0.028402 6:-0.493735 7:-0.068477 8:-0.299196 9:0.928426
-10.000000 1:-0.160927 2:-0.214708 3:-0.093552 4:-0.196751 5:-0.039653 6:-0.557355 7:-0.061228 8:0.107303 9:0.872064
-10.000000 1:-0.162878 2:-0.187996 3:-0.093638 4:-0.205448 5:0.312050 6:-0.445955 7:-0.068538 8:0.196264 9:0.928426
-10.000000 1:-0.162390 2:-0.239658 3:-0.092525 4:-0.090723 5:0.149836 6:-0.603467 7:-0.066940 8:0.537506 9:0.928426
-0.197145 1:-0.161160 2:-0.242166 3:-0.092525 4:-0.175999 5:-0.177204 6:-0.621682 7:-0.068280 8:-0.380567 9:0.928426
-10.000000 1:-0.162581 2:-0.228964 3:-0.092011 4:-0.114989 5:0.126582 6:-0.444562 7:-0.064158 8:0.349272 9:0.928426
-7.405352 1:-0.150686 2:-0.294174 3:-0.093895 4:-0.189248 5:2.953952 6:-0.559906 7:-0.065502 8:-3.204574 9:-0.805367
-2.639913 1:-0.163005 2:0.027691 3:-0.092097 4:-0.102632 5:-1.541919 6:-0.636305 7:-0.073650 8:-1.560194 9:-0.393439
10.000000 1:-0.163429 2:0.000583 3:-0.093724 4:-0.170283 5:-0.028760 6:2.171368 7:-0.079081 8:-0.537088 9:-0.805367
10.000000 1:-0.163556 2:-0.216123 3:-0.093039 4:-0.162314 5:0.421785 6:-0.305991 7:-0.070029 8:-0.485354 9:-1.154902
10.000000 1:-0.161648 2:-0.387140 3:-0.093210 4:-0.081748 5:0.318858 6:-0.508684 7:0.015970 8:0.107746 9:0.928426
7.398939 1:-0.162496 2:0.094062 3:-0.093039 4:-0.145706 5:3.423120 6:-0.348339 7:-0.075886 8:-0.071050 9:0.924911
0.003844 1:0.682463 2:4.622204 3:3.325804 4:5.871129 5:-2.070937 6:-0.113232 7:-0.068551 8:-0.989914 9:0.928426
0.030283 1:8.466893 2:-0.693604 3:14.840441 4:2.926243 5:-2.396388 6:-0.624125 7:-0.051924 8:1.239438 9:0.928423
10.000000 1:-0.163132 2:-0.159716 3:-0.091154 4:-0.030412 5:0.251701 6:-0.261949 7:-0.067899 8:0.361006 9:-1.129641
10.000000 1:-0.159697 2:-0.304675 3:-0.091326 4:-0.160462 5:0.926632 6:-0.463726 7:-0.072259 8:-1.218538 9:-1.154943
10.000000 1:-0.163047 2:-0.216636 3:-0.093724 4:-0.195484 5:0.275433 6:-0.088467 7:-0.065502 8:-0.088214 9:0.928426
10.000000 1:-0.163026 2:-0.401035 3:-0.093467 4:-0.161954 5:0.113981 6:-0.499346 7:-0.054782 8:0.113623 9:0.928426
10.000000 1:-0.163132 2:-0.110270 3:-0.093124 4:-0.182456 5:0.312797 6:-0.636305 7:-0.073046 8:-0.555394 9:0.918092
10.000000 1:-0.159761 2:-0.524985 3:-0.091668 4:-0.247950 5:-0.282138 6:-0.602441 7:-0.077707 8:-2.413825 9:-0.805367
10.000000 1:-0.157959 2:0.024802 3:-0.093124 4:-0.161035 5:0.115852 6:0.623724 7:-0.072753 8:0.310580 9:-0.805367
10.000000 1:-0.161733 2:-0.049832 3:-0.093039 4:-0.159139 5:0.143411 6:2.449050 7:-0.075008 8:0.193978 9:-0.754632
10.000000 1:-0.162072 2:-0.420715 3:-0.092696 4:-0.068068 5:0.367421 6:-0.556937 7:0.008426 8:0.046940 9:0.928426
10.000000 1:-0.157747 2:-0.057116 3:-0.093039 4:-0.172430 5:0.120339 6:1.554241 7:-0.075240 8:0.116136 9:-0.805367
0.038266 1:25.850470 2:0.156596 3:-0.092610 4:-0.213451 5:-0.889018 6:-0.624374 7:21.040458 8:-1.186330 9:0.928426
10.000000 1:-0.159591 2:-0.037829 3:-0.094152 4:-0.180176 5:3.747434 6:0.024324 7:-0.031556 8:-2.713834 9:-0.805367
0.002785 1:2.948409 2:6.541040 3:1.460693 4:3.325614 5:-1.310654 6:-0.179111 7:-0.054688 8:2.031527 9:0.928426
10.000000 1:-0.162136 2:-0.117631 3:-0.093124 4:-0.136268 5:0.378643 6:3.911662 7:-0.076172 8:-0.221374 9:-0.805367
10.000000 1:-0.160079 2:-0.327483 3:-0.093467 4:-0.184820 5:0.274529 6:-0.615755 7:-0.057082 8:0.790497 9:0.928426
10.000000 1:-0.163493 2:-0.693604 3:-0.093724 4:-0.196929 5:-0.241194 6:2.572465 7:-0.079081 8:-0.526497 9:-0.805367
0.015694 1:0.313371 2:5.457669 3:1.835017 4:5.079084 5:-1.859968 6:1.071228 7:-0.070070 8:-1.679477 9:0.928426
10.000000 1:-0.158849 2:-0.211526 3:-0.093467 4:-0.205102 5:0.759461 6:-0.636305 7:-0.063239 8:-0.164811 9:0.928426
10.000000 1:-0.161690 2:-0.384070 3:-0.093039 4:-0.079717 5:0.332140 6:-0.510589 7:0.015970 8:0.058537 9:0.928426
10.000000 1:-0.162899 2:0.050787 3:-0.093724 4:-0.227720 5:-0.015635 6:0.486764 7:-0.070029 8:-0.061840 9:0.903611
10.000000 1:-0.162644 2:-0.332639 3:-0.090983 4:-0.030683 5:-0.133740 6:-0.220354 7:-0.057959 8:0.263781 9:0.924019
10.000000 1:-0.151068 2:-0.562607 3:-0.085845 4:-0.174076 5:-2.022287 6:-0.630648 7:-0.078919 8:0.567520 9:-0.805367
10.000000 1:-0.161945 2:-0.180885 3:-0.093039 4:-0.171744 5:0.034195 6:-0.525930 7:-0.075034 8:-0.095325 9:-1.154937
10.000000 1:-0.163196 2:-0.293704 3:-0.093552 4:-0.189083 5:0.255483 6:-0.508684 7:-0.067011 8:-0.132767 9:0.928426
10.000000 1:-0.161733 2:-0.124283 3:-0.092867 4:-0.148685 5:0.406925 6:-0.569456 7:-0.065246 8:-0.132283 9:-0.805367
10.000000 1:-0.160715 2:-0.299543 3:-0.090555 4:-0.143447 5:0.464251 6:-0.601961 7:-0.066796 8:0.452401 9:-0.805367
10.000000 1:-0.162030 2:-0.422998 3:-0.093039 4:-0.074260 5:0.354152 6:-0.513342 7:0.008426 8:0.104080 9:0.928426
10.000000 1:-0.162941 2:0.048220 3:-0.093724 4:-0.211449 5:0.041412 6:0.486764 7:-0.070029 8:-0.008872 9:0.903611
10.000000 1:-0.163493 2:-0.253905 3:-0.093724 4:-0.171740 5:0.490556 6:-0.305991 7:-0.059330 8:0.081355 9:0.928376
0.032013 1:0.470121 2:-0.693604 3:-0.092353 4:-0.111191 5:-0.118849 6:-0.409797 7:12.006039 8:2.576757 9:-0.805367
10.000000 1:-0.163238 2:-0.124856 3:-0.093638 4:-0.169909 5:0.426390 6:-0.636305 7:-0.060071 8:-0.537242 9:0.928373
10.000000 1:-0.161945 2:-0.403757 3:-0.093039 4:-0.078742 5:0.349902 6:-0.511520 7:0.011976 8:0.156234 9:0.928426
10.000000 1:-0.158913 2:-0.228045 3:-0.092268 4:-0.129989 5:0.724275 6:0.108565 7:-0.071244 8:-0.154009 9:-0.805367
10.000000 1:-0.112374 2:0.184228 3:-0.092353 4:-0.163735 5:-0.110165 6:0.957282 7:-0.075924 8:0.427882 9:-0.805367
10.000000 1:-0.163705 2:-0.384024 3:-0.093724 4:-0.177525 5:0.406096 6:-0.636305 7:-0.051924 8:-0.081780 9:0.928355
10.000000 1:-0.161733 2:-0.693604 3:-0.089784 4:0.102373 5:-0.900950 6:0.486764 7:-0.079081 8:-1.070670 9:0.928426
3.268459 1:-0.157386 2:0.064802 3:-0.093467 4:-0.157816 5:0.914201 6:-0.617681 7:-0.067804 8:0.710492 9:0.928426
10.000000 1:-0.163026 2:-0.366439 3:-0.093467 4:-0.161954 5:0.224806 6:-0.499346 7:-0.055803 8:0.040922 9:0.928426
2.256658 1:-0.163047 2:-0.693604 3:-0.093809 4:-0.217012 5:0.247149 6:5.602970 7:-0.051924 8:-0.289525 9:0.928426
0.004551 1:-0.162560 2:-0.693604 3:-0.094152 4:-0.304756 5:4.020864 6:10.594390 7:0.002391 8:-1.899806 9:0.928421
10.000000 1:-0.158510 2:-0.199671 3:-0.092525 4:-0.148456 5:0.531716 6:1.019765 7:-0.065846 8:0.397606 9:-0.805367
10.000000 1:-0.162899 2:-0.104060 3:-0.092953 4:-0.169257 5:0.392987 6:-0.636305 7:-0.071839 8:-0.633848 9:0.927369
10.000000 1:-0.162072 2:-0.420706 3:-0.093039 4:-0.056277 5:0.367421 6:-0.555509 7:0.008426 8:0.040766 9:0.928426
10.000000 1:-0.162157 2:-0.287945 3:-0.091668 4:-0.154308 5:0.072836 6:-0.610369 7:-0.070712 8:0.096491 9:0.928426
10.000000 1:-0.160948 2:-0.271549 3:-0.092782 4:-0.149308 5:0.738557 6:-0.597952 7:-0.063164 8:0.743083 9:0.928426
10.000000 1:-0.162178 2:-0.221203 3:-0.093124 4:-0.165682 5:-0.247222 6:-0.622823 7:-0.070357 8:-0.041454 9:0.928426
10.000000 1:-0.161966 2:-0.110990 3:-0.093638 4:-0.207204 5:0.091767 6:1.703423 7:-0.073549 8:-0.033221 9:0.928426
10.000000 1:-0.160673 2:-0.355982 3:-0.092953 4:-0.147259 5:0.277834 6:-0.568651 7:-0.055545 8:0.577677 9:0.928426
10.000000 1:-0.154948 2:-0.212515 3:-0.093039 4:-0.172168 5:0.160691 6:-0.128734 7:-0.064761 8:-0.005572 9:0.928426
10.000000 1:-0.162030 2:-0.192369 3:-0.093210 4:-0.163166 5:0.155831 6:-0.393599 7:-0.070825 8:0.164130 9:0.928426
10.000000 1:-0.161054 2:-0.030759 3:-0.093638 4:-0.192071 5:0.392222 6:-0.070052 7:-0.065502 8:0.185992 9:0.928426
0.021433 1:8.160391 2:0.152918 3:-0.032492 4:-0.024235 5:-2.110926 6:-0.635663 7:0.002391 8:0.959536 9:0.928426
10.000000 1:-0.163344 2:-0.250544 3:-0.093724 4:-0.182126 5:0.011738 6:-0.235209 7:-0.063994 8:0.012391 9:0.928426
10.000000 1:-0.162644 2:-0.343199 3:-0.093124 4:-0.177951 5:0.132016 6:-0.636305 7:-0.069552 8:0.166412 9:-0.805367
10.000000 1:-0.160906 2:-0.252893 3:-0.092610 4:-0.169636 5:-0.487237 6:1.186648 7:-0.065791 8:0.024750 9:-0.805367
10.000000 1:-0.163196 2:-0.294296 3:-0.093467 4:-0.197449 5:0.003687 6:-0.332773 7:-0.060976 8:-0.343300 9:0.928426
10.000000 1:-0.161627 2:-0.131088 3:-0.093381 4:-0.164349 5:-0.176877 6:-0.295981 7:-0.065502 8:0.201744 9:0.928392
10.000000 1:-0.162793 2:-0.401642 3:-0.093552 4:-0.197734 5:0.418257 6:-0.405538 7:-0.055696 8:-0.156688 9:0.928426
10.000000 1:-0.161245 2:-0.199260 3:-0.092696 4:-0.157559 5:0.264267 6:-0.419404 7:-0.075995 8:-0.486710 9:0.891623
10.000000 1:-0.160567 2:-0.255453 3:-0.093210 4:-0.203976 5:0.159972 6:0.172254 7:-0.063563 8:0.197031 9:0.928426
10.000000 1:-0.162560 2:-0.290204 3:-0.093124 4:-0.151162 5:-0.427317 6:-0.615699 7:-0.077573 8:-0.570944 9:0.928426
0.013193 1:1.681183 2:4.962339 3:7.359699 4:6.457729 5:-2.184195 6:0.231682 7:-0.062556 8:-1.224627 9:0.928426
10.000000 1:-0.163281 2:-0.133256 3:-0.093638 4:-0.198741 5:0.429402 6:-0.636305 7:-0.071160 8:-0.053670 9:0.927478
10.000000 1:-0.163874 2:-0.244809 3:-0.094066 4:-0.208050 5:1.953513 6:0.767531 7:-0.065502 8:-0.898165 9:-0.805367
10.000000 1:-0.161881 2:-0.028463 3:-0.092439 4:-0.092938 5:-0.023889 6:0.227594 7:-0.065502 8:-0.000747 9:-0.805367
0.027996 1:-0.164213 2:0.000583 3:-0.094152 4:-0.304756 5:2.988988 6:10.594390 7:-0.079081 8:-3.112058 9:-0.198427
10.000000 1:-0.161669 2:-0.387192 3:-0.093039 4:-0.070418 5:0.318858 6:-0.511056 7:0.015970 8:0.082362 9:0.928426
10.000000 1:-0.161245 2:-0.145998 3:-0.092525 4:-0.162818 5:-0.422288 6:0.897942 7:-0.065187 8:0.537897 9:-0.805367
10.000000 1:-0.163832 2:-0.335816 3:-0.093210 4:-0.136378 5:0.357930 6:-0.636305 7:-0.065502 8:0.013173 9:0.927434
10.000000 1:-0.157280 2:0.000583 3:-0.090983 4:0.015564 5:-0.686903 6:-0.460826 7:-0.051924 8:-0.805072 9:0.311834
10.000000 1:-0.162538 2:-0.176318 3:-0.093724 4:-0.185133 5:0.231868 6:2.251588 7:-0.073046 8:0.353508 9:0.928426
10.000000 1:-0.162708 2:-0.212190 3:-0.093295 4:-0.174016 5:0.691574 6:-0.636305 7:-0.069206 8:0.227627 9:0.928426
10.000000 1:-0.164044 2:-0.367026 3:-0.093724 4:-0.182562 5:0.059672 6:-0.101510 7:-0.063239 8:-0.228934 9:0.928426
10.000000 1:-0.162496 2:-0.049209 3:-0.092782 4:-0.171458 5:-0.255457 6:-0.397354 7:-0.073177 8:-0.959944 9:0.927113
10.000000 1:-0.162305 2:-0.435776 3:-0.093210 4:-0.088370 5:0.384702 6:-0.514673 7:0.005250 8:0.128793 9:0.928426
10.000000 1:-0.162687 2:-0.314051 3:-0.093552 4:-0.203586 5:0.594200 6:-0.583579 7:-0.069158 8:-0.091616 9:0.928426
0.006233 1:2.223965 2:5.690360 3:9.552034 4:5.555358 5:-2.299301 6:0.429659 7:-0.067442 8:-2.554613 9:0.928426
10.000000 1:-0.163365 2:-0.367847 3:-0.093210 4:-0.163339 5:-0.212359 6:-0.494145 7:-0.060565 8:0.743492 9:0.928426
10.000000 1:-0.154863 2:0.076563 3:-0.093039 4:-0.153042 5:-0.271567 6:1.200082 7:-0.077134 8:0.368310 9:-0.805367
0.038739 1:11.244200 2:-0.693604 3:45.982892 4:0.247352 5:-2.411358 6:1.609834 7:-0.051924 8:0.731295 9:0.928423
10.000000 1:-0.159782 2:-0.293274 3:-0.091668 4:-0.179773 5:0.292420 6:-0.612612 7:-0.059244 8:0.343717 9:0.928426
10.000000 1:-0.163683 2:-0.693604 3:-0.093381 4:-0.109147 5:-0.251368 6:-0.636305 7:-0.051924 8:-0.904317 9:0.920484
0.038068 1:5.061804 2:0.000572 3:-0.092182 4:-0.202658 5:-0.100620 6:-0.543214 7:23.765268 8:-0.510452 9:0.928426
10.000000 1:-0.162984 2:-0.238152 3:-0.093210 4:-0.150178 5:0.747222 6:-0.531346 7:-0.064788 8:0.703103 9:0.928426
10.000000 1:-0.163365 2:0.115527 3:-0.093638 4:-0.230799 5:-0.009117 6:0.611550 7:-0.070029 8:-0.143234 9:0.928426
10.000000 1:-0.161139 2:-0.175037 3:-0.092867 4:-0.143611 5:-0.463274 6:0.255321 7:-0.078877 8:0.507186 9:-0.805367
10.000000 1:-0.162157 2:-0.187026 3:-0.093381 4:-0.173752 5:-0.138321 6:-0.442673 7:-0.071997 8:-0.074623 9:0.928419
10.000000 1:-0.158870 2:-0.158055 3:-0.092525 4:-0.180876 5:-0.139079 6:0.243072 7:-0.064229 8:0.581666 9:0.928426
10.000000 1:-0.162178 2:-0.221490 3:-0.093124 4:-0.166209 5:-0.249191 6:-0.622823 7:-0.070357 8:-0.027271 9:0.928426
10.000000 1:-0.157174 2:0.034501 3:-0.093381 4:-0.179235 5:0.162481 6:-0.113232 7:-0.065214 8:0.273753 9:0.928426
10.000000 1:-0.162496 2:-0.078872 3:-0.093724 4:-0.177162 5:0.305370 6:2.531326 7:-0.073650 8:-0.609181 9:0.928426
10.000000 1:-0.162878 2:-0.312405 3:-0.093552 4:-0.135810 5:0.715289 6:-0.613617 7:-0.059986 8:-0.133946 9:0.928426
10.000000 1:-0.162432 2:-0.448427 3:-0.092867 4:-0.077717 5:0.401748 6:-0.554924 7:0.002391 8:-0.077599 9:0.928426
10.000000 1:-0.162475 2:-0.302979 3:-0.092182 4:-0.102895 5:-0.258593 6:-0.348339 7:-0.045134 8:0.619373 9:0.928426
10.000000 1:-0.163450 2:-0.291052 3:-0.093552 4:-0.211783 5:0.708361 6:-0.636305 7:-0.066694 8:0.093249 9:0.928426
10.000000 1:-0.161521 2:0.113609 3:-0.092525 4:-0.118038 5:-0.270327 6:-0.636305 7:-0.070029 8:0.358026 9:0.928426
10.000000 1:-0.164235 2:-0.693604 3:-0.094152 4:-0.130157 5:2.336169 6:-0.636305 7:-0.051924 8:-2.808476 9:-0.198427
10.000000 1:-0.162369 2:-0.693604 3:-0.091668 4:0.053587 5:0.064685 6:-0.636305 7:-0.051924 8:0.263912 9:0.928426
10.000000 1:-0.154948 2:-0.213656 3:-0.093039 4:-0.172040 5:0.154039 6:-0.134464 7:-0.064761 8:-0.006674 9:0.928426
0.025654 1:2.328917 2:2.084005 3:9.975771 4:3.010585 5:-2.361656 6:-0.513566 7:-0.065914 8:0.933910 9:0.928426
10.000000 1:-0.162242 2:-0.122740 3:-0.092867 4:-0.155061 5:0.329837 6:2.205748 7:-0.076395 8:-0.224433 9:-0.805367
10.000000 1:-0.162708 2:-0.149167 3:-0.093295 4:-0.191933 5:0.917087 6:-0.636305 7:-0.071322 8:-0.962367 9:-1.153754
10.000000 1:-0.163153 2:-0.130653 3:-0.093124 4:-0.185987 5:0.154106 6:-0.636305 7:-0.079081 8:-0.961656 9:0.928426
10.000000 1:-0.163281 2:-0.290925 3:-0.093724 4:-0.198697 5:0.374514 6:-0.636305 7:-0.059683 8:-0.258719 9:0.928313
10.000000 1:-0.147888 2:-0.390247 3:-0.040029 4:-0.036543 5:-0.214479 6:-0.248860 7:-0.057970 8:0.450106 9:0.928426
10.000000 1:-0.160333 2:-0.254173 3:-0.092782 4:-0.188411 5:1.683695 6:-0.548025 7:-0.070712 8:-1.640189 9:-1.154943
10.000000 1:-0.163196 2:-0.259208 3:-0.093638 4:-0.120040 5:0.466427 6:0.861120 7:-0.070029 8:-0.830950 9:-0.805367
2.987830 1:-0.163408 2:-0.365086 3:-0.092268 4:-0.038299 5:3.667349 6:-0.636305 7:-0.060976 8:-1.918800 9:0.928415
10.000000 1:-0.163238 2:0.000583 3:-0.093895 4:-0.218136 5:0.483006 6:-0.636305 7:-0.051924 8:-0.413435 9:0.928426
10.000000 1:-0.156708 2:-0.147262 3:-0.092610 4:-0.185315 5:0.302600 6:0.005379 7:-0.064944 8:0.451607 9:0.928426
10.000000 1:-0.163747 2:-0.363095 3:-0.093467 4:-0.182156 5:1.393863 6:-0.148014 7:-0.065502 8:-1.494899 9:-0.121488
10.000000 1:-0.161966 2:-0.112175 3:-0.093638 4:-0.206928 5:0.085282 6:1.687287 7:-0.073549 8:-0.033818 9:0.928426
10.000000 1:-0.163535 2:-0.243254 3:-0.093724 4:-0.212638 5:-0.060113 6:-0.274025 7:-0.061799 8:0.159272 9:0.928426
1.765191 1:-0.155414 2:-0.693604 3:-0.093552 4:-0.158341 5:2.720408 6:-0.148014 7:0.002391 8:-4.623812 9:0.928376
10.000000 1:-0.163365 2:-0.344122 3:-0.093039 4:-0.138939 5:0.667118 6:-0.636305 7:-0.062956 8:-0.290218 9:0.928426
10.000000 1:-0.162560 2:-0.418762 3:-0.087900 4:0.042448 5:-1.761864 6:-0.612023 7:-0.076350 8:-2.031625 9:0.928426
10.000000 1:-0.144559 2:-0.107374 3:-0.092439 4:-0.135319 5:0.579596 6:-0.579139 7:-0.064259 8:0.656726 9:-1.154943
10.000000 1:-0.162857 2:-0.168774 3:-0.093467 4:-0.188674 5:-0.050632 6:-0.505716 7:-0.068636 8:-0.350849 9:0.928426
10.000000 1:-0.160037 2:0.270494 3:-0.093809 4:-0.260960 5:-0.520441 6:-0.636305 7:-0.073650 8:-1.533292 9:-0.805367
10.000000 1:-0.163047 2:-0.244920 3:-0.093039 4:-0.166337 5:0.004174 6:0.424371 7:-0.079081 8:0.304476 9:-0.805367
4.174053 1:-0.164001 2:-0.693604 3:-0.094066 4:-0.264025 5:0.513024 6:2.171368 7:-0.079081 8:-1.230230 9:0.916438
10.000000 1:-0.162729 2:-0.408402 3:-0.093467 4:-0.196090 5:-0.113150 6:-0.636305 7:-0.063239 8:0.546050 9:-0.805367
10.000000 1:-0.163090 2:-0.178489 3:-0.093124 4:-0.178713 5:0.613136 6:-0.537791 7:-0.069867 8:-0.360307 9:0.928426
10.000000 1:-0.161733 2:-0.120579 3:-0.093124 4:-0.168298 5:0.581835 6:2.593122 7:-0.071502 8:-0.271686 9:-0.805367
10.000000 1:-0.161902 2:-0.406618 3:-0.092867 4:-0.062385 5:0.336626 6:-0.554029 7:0.011976 8:0.033707 9:0.928426
10.000000 1:-0.161224 2:-0.057343 3:-0.091326 4:-0.133376 5:0.321199 6:-0.571137 7:-0.065270 8:0.322440 9:0.928426
10.000000 1:-0.143944 2:-0.175022 3:-0.091411 4:-0.133442 5:0.502271 6:-0.552648 7:-0.064553 8:0.710852 9:0.928426
10.000000 1:-0.163111 2:-0.210842 3:-0.092953 4:-0.154759 5:0.108858 6:-0.636305 7:-0.071770 8:-0.827772 9:0.928426
10.000000 1:-0.163344 2:-0.307270 3:-0.093210 4:-0.171815 5:-0.053911 6:-0.526201 7:-0.061560 8:0.747839 9:0.928426
1.848675 1:0.205811 2:0.752313 3:-0.093638 4:-0.265504 5:-0.602901 6:-0.636305 7:-0.076064 8:-3.182003 9:-0.805367
10.000000 1:-0.161945 2:-0.422877 3:-0.093039 4:-0.076867 5:0.354152 6:-0.554924 7:0.008426 8:0.088931 9:0.928426
10.000000 1:-0.163535 2:-0.243254 3:-0.093724 4:-0.214926 5:-0.060113 6:-0.274025 7:-0.061799 8:0.083091 9:0.928426
10.000000 1:-0.161860 2:-0.233617 3:-0.092353 4:-0.146941 5:0.496066 6:-0.517647 7:-0.074903 8:-0.739442 9:-1.154943
10.000000 1:-0.163874 2:-0.192247 3:-0.093724 4:-0.188940 5:-0.255859 6:-0.636305 7:-0.065502 8:-1.059617 9:0.928426
0.008652 1:0.682484 2:6.591447 3:3.325804 4:11.049909 5:-0.396492 6:0.145499 7:-0.060078 8:1.383785 9:0.928426
10.000000 1:-0.163535 2:-0.169712 3:-0.093981 4:-0.223507 5:0.632295 6:0.611550 7:-0.079081 8:-0.657092 9:-0.198427
10.000000 1:-0.162157 2:-0.246492 3:-0.093210 4:-0.169793 5:1.111207 6:-0.636305 7:-0.066005 8:-1.017668 9:-1.154856
10.000000 1:-0.162644 2:-0.295845 3:-0.093295 4:-0.175978 5:0.511268 6:-0.433951 7:-0.063013 8:0.827381 9:0.928426
10.000000 1:-0.159188 2:-0.080010 3:-0.092782 4:-0.160040 5:-0.429102 6:0.741874 7:-0.052603 8:0.599031 9:-0.805367
10.000000 1:-0.162751 2:-0.220465 3:-0.093039 4:-0.189317 5:0.434950 6:-0.636305 7:-0.066917 8:0.109306 9:0.928426
10.000000 1:-0.163514 2:-0.149637 3:-0.093809 4:-0.205276 5:-0.055747 6:0.299586 7:-0.058713 8:-0.184591 9:0.803511
1.822643 1:0.457505 2:0.679454 3:-0.093552 4:-0.268489 5:-0.639013 6:-0.636305 7:-0.075687 8:-3.302679 9:-0.805367
10.000000 1:-0.163132 2:-0.128980 3:-0.093724 4:-0.149976 5:0.392549 6:-0.220354 7:-0.070029 8:0.528474 9:0.928413
10.000000 1:-0.161690 2:-0.387271 3:-0.092867 4:-0.072676 5:0.318858 6:-0.509166 7:0.015970 8:0.055783 9:0.928426
10.000000 1:-0.162708 2:-0.152642 3:-0.093124 4:-0.185360 5:0.939034 6:-0.636305 7:-0.071322 8:-1.108762 9:-1.154877
10.000000 1:-0.159761 2:-0.525089 3:-0.091668 4:-0.247939 5:-0.281414 6:-0.602427 7:-0.077707 8:-2.416358 9:-0.805367
10.000000 1:-0.161648 2:-0.124941 3:-0.093295 4:-0.207487 5:0.224267 6:-0.605281 7:-0.071068 8:0.094328 9:0.928426
10.000000 1:-0.162941 2:-0.256754 3:-0.093809 4:-0.168003 5:0.313019 6:-0.636305 7:-0.063563 8:0.279004 9:0.928426
10.000000 1:-0.162220 2:-0.306948 3:-0.093124 4:-0.201506 5:0.621705 6:-0.599960 7:-0.068318 8:0.074311 9:0.928426
10.000000 1:-0.162178 2:-0.203127 3:-0.093295 4:-0.134107 5:0.452952 6:-0.450674 7:-0.060653 8:0.900492 9:0.928426
10.000000 1:-0.163090 2:-0.302657 3:-0.093552 4:-0.197303 5:0.070849 6:0.535922 7:-0.065659 8:0.581652 9:-0.805367
10.000000 1:-0.164235 2:0.000583 3:-0.094152 4:-0.130157 5:2.462777 6:-0.636305 7:-0.065502 8:-2.808476 9:-0.198427
10.000000 1:-0.163132 2:-0.351121 3:-0.093210 4:-0.177466 5:0.021878 6:-0.391272 7:-0.059428 8:0.518587 9:0.928426
10.000000 1:-0.163493 2:-0.311782 3:-0.093638 4:-0.154401 5:0.667623 6:-0.424406 7:-0.058713 8:0.228235 9:0.928426
3.963338 1:-0.163980 2:-0.693604 3:-0.094066 4:-0.113492 5:1.167486 6:3.107260 7:-0.051924 8:-1.461649 9:-0.805367
0.022127 1:2.295714 2:11.048832 3:0.316226 4:1.782237 5:-0.808966 6:0.569945 7:-0.063025 8:1.765043 9:0.928426
10.000000 1:-0.162963 2:-0.216685 3:-0.093039 4:-0.156546 5:-0.306123 6:-0.584788 7:-0.063456 8:0.164155 9:0.928426
10.000000 1:-0.162602 2:-0.226625 3:-0.093124 4:-0.163442 5:-0.252369 6:-0.283772 7:-0.074253 8:0.158052 9:0.928426
10.000000 1:-0.161690 2:-0.383991 3:-0.093039 4:-0.084559 5:0.332140 6:-0.552180 7:0.015970 8:-0.060030 9:0.928426
10.000000 1:-0.157344 2:0.079891 3:-0.090812 4:-0.108330 5:0.699239 6:-0.601908 7:-0.069519 8:0.515401 9:0.928426
10.000000 1:-0.162369 2:-0.222145 3:-0.093210 4:-0.177757 5:0.431075 6:-0.160653 7:-0.066486 8:0.474013 9:0.928426
10.000000 1:-0.163111 2:-0.193416 3:-0.092097 4:-0.124484 5:0.584039 6:-0.556086 7:-0.071007 8:-0.217117 9:0.928426
10.000000 1:-0.157916 2:-0.201988 3:-0.092525 4:-0.151041 5:0.242481 6:-0.130068 7:-0.064292 8:0.255129 9:0.928426
10.000000 1:-0.159167 2:-0.257561 3:-0.092867 4:-0.169481 5:1.209421 6:1.921715 7:-0.069251 8:0.814364 9:-0.805367
3.306103 1:-0.106479 2:1.206913 3:-0.088842 4:-0.071495 5:0.034889 6:-0.593522 7:-0.038345 8:0.917427 9:0.928426
10.000000 1:-0.160651 2:-0.253633 3:-0.093124 4:-0.177802 5:1.141722 6:0.354766 7:-0.068125 8:-0.818835 9:-0.805367
10.000000 1:-0.151047 2:-0.389189 3:-0.085845 4:-0.048963 5:-1.776521 6:-0.602478 7:-0.077292 8:0.717609 9:0.928426
0.026115 1:24.908170 2:0.000580 3:-0.092782 4:-0.216460 5:-1.027112 6:-0.631745 7:7.687985 8:-1.433850 9:0.928426
10.000000 1:-0.162793 2:-0.387729 3:-0.093552 4:-0.194991 5:0.526055 6:-0.420331 7:-0.056328 8:0.510231 9:0.928426
10.000000 1:-0.161436 2:-0.223030 3:-0.092782 4:-0.156137 5:0.342280 6:-0.636305 7:-0.068630 8:0.218082 9:0.928426
0.030713 1:3.183163 2:1.326243 3:13.425272 4:1.293350 5:-2.405807 6:-0.636305 7:-0.063106 8:-0.899956 9:0.928426
10.000000 1:-0.161627 2:-0.132187 3:-0.093381 4:-0.181974 5:-0.445235 6:-0.295981 7:-0.072292 8:0.449494 9:0.928392
10.000000 1:-0.152616 2:-0.249585 3:-0.092268 4:-0.123443 5:0.697438 6:-0.501313 7:-0.064269 8:0.389942 9:0.928426
0.029371 1:1.134881 2:7.296347 3:3.335481 4:5.515665 5:-1.494650 6:0.507111 7:-0.067727 8:1.904739 9:0.928426
10.000000 1:-0.162963 2:-0.251021 3:-0.093039 4:-0.165608 5:0.200965 6:0.320856 7:-0.079081 8:0.027822 9:-0.805367
10.000000 1:-0.163047 2:0.073530 3:-0.093724 4:-0.164170 5:0.201700 6:0.024324 7:-0.071322 8:0.293443 9:0.928338
0.015607 1:1.868972 2:10.048037 3:-0.006030 4:0.202819 5:-0.340748 6:-0.210433 7:-0.057655 8:0.388549 9:0.928426
10.000000 1:-0.162008 2:-0.203766 3:-0.093039 4:-0.169498 5:0.423924 6:-0.563716 7:-0.074226 8:-0.416798 9:0.928426
10.000000 1:-0.156475 2:-0.135600 3:-0.089956 4:-0.088515 5:-0.243855 6:-0.614666 7:-0.063678 8:-0.560067 9:0.928426
10.000000 1:-0.157153 2:-0.278253 3:-0.067347 4:-0.119321 5:0.805059 6:-0.626042 7:-0.072393 8:-0.977942 9:-1.154943
10.000000 1:-0.160991 2:-0.296007 3:-0.092268 4:-0.161899 5:0.243504 6:-0.554597 7:-0.072881 8:-0.319855 9:0.928426
10.000000 1:-0.163047 2:-0.242614 3:-0.093210 4:-0.178777 5:0.463373 6:-0.527270 7:-0.068431 8:-0.319629 9:0.928426
10.000000 1:-0.163365 2:-0.339526 3:-0.093039 4:-0.126176 5:0.664291 6:-0.636305 7:-0.062988 8:-0.200207 9:0.928426
10.000000 1:-0.161436 2:-0.232386 3:-0.092867 4:-0.143700 5:0.175314 6:0.670203 7:-0.077822 8:0.378359 9:-0.805367
10.000000 1:-0.160948 2:-0.233185 3:-0.092097 4:-0.168324 5:0.519273 6:-0.598832 7:-0.073044 8:-0.383502 9:0.928426
10.000000 1:-0.163726 2:-0.217620 3:-0.094066 4:-0.214660 5:1.899887 6:0.611550 7:-0.065502 8:-0.832277 9:-0.805367
10.000000 1:-0.161627 2:-0.387048 3:-0.093039 4:-0.071694 5:0.318858 6:-0.508684 7:0.015970 8:0.058418 9:0.928426
10.000000 1:-0.162560 2:-0.179580 3:-0.093295 4:-0.171435 5:-0.224795 6:-0.572855 7:-0.076419 8:-0.663311 9:-1.154941
10.000000 1:-0.163005 2:-0.200366 3:-0.093381 4:-0.163416 5:0.240435 6:-0.125819 7:-0.063563 8:0.271854 9:0.928426
10.000000 1:-0.156475 2:-0.126599 3:-0.089956 4:-0.088660 5:-0.261238 6:-0.572130 7:-0.063731 8:-0.490358 9:0.928426
8.210878 1:-0.161309 2:0.044864 3:-0.093467 4:-0.169150 5:0.707209 6:2.551574 7:-0.065890 8:-0.042490 9:0.928426
10.000000 1:-0.162051 2:-0.249355 3:-0.092782 4:-0.160736 5:-0.083825 6:-0.395156 7:-0.062902 8:0.746140 9:0.928426
0.015516 1:13.001690 2:-0.693604 3:0.328900 4:0.096642 5:-2.154593 6:-0.634843 7:0.328282 8:1.183352 9:0.928426
10.000000 1:-0.144983 2:-0.001411 3:-0.093638 4:-0.192510 5:0.016448 6:-0.627999 7:-0.065331 8:-0.832905 9:0.928426
0.020164 1:5.674279 2:0.288091 3:-0.092953 4:-0.207460 5:-0.249897 6:-0.531450 7:13.499705 8:-0.679418 9:0.928426
10.000000 1:-0.162030 2:-0.026041 3:-0.093467 4:-0.200929 5:0.132418 6:1.942595 7:-0.074555 8:-0.101202 9:0.928426
10.000000 1:-0.163577 2:-0.547365 3:-0.092782 4:-0.080498 5:0.064289 6:-0.578115 7:-0.053032 8:0.580554 9:0.928426
10.000000 1:-0.163853 2:-0.065534 3:-0.093552 4:-0.220425 5:0.247149 6:-0.636305 7:-0.076818 8:-0.486103 9:0.164798
10.000000 1:-0.161436 2:-0.176232 3:-0.091668 4:-0.134860 5:-0.350409 6:0.624283 7:-0.079081 8:0.633563 9:-0.805367
10.000000 1:-0.163090 2:-0.282665 3:-0.093552 4:-0.183290 5:0.615530 6:-0.636305 7:-0.069076 8:-0.177865 9:0.928426
10.000000 1:-0.142608 2:0.011970 3:-0.093638 4:-0.187708 5:-0.161829 6:-0.628402 7:-0.065331 8:-0.968157 9:0.928426
10.000000 1:-0.161436 2:-0.262590 3:-0.093124 4:-0.177186 5:0.383506 6:-0.636305 7:-0.070746 8:0.057757 9:-0.805367
10.000000 1:-0.154821 2:-0.177507 3:-0.091411 4:-0.158795 5:0.947927 6:-0.620296 7:-0.072131 8:-1.106460 9:-1.154943
0.000892 1:2.380672 2:8.502922 3:9.591427 4:18.495646 5:-1.176967 6:0.510595 7:-0.037433 8:0.641648 9:0.928426
10.000000 1:-0.154948 2:-0.213653 3:-0.093039 4:-0.172040 5:0.153535 6:-0.134464 7:-0.064761 8:-0.006008 9:0.928426
10.000000 1:-0.163153 2:-0.131136 3:-0.093124 4:-0.185689 5:0.159560 6:-0.636305 7:-0.079081 8:-0.972919 9:0.928426
10.000000 1:-0.163281 2:-0.141684 3:-0.091668 4:-0.095236 5:0.732477 6:-0.636305 7:-0.070505 8:-0.421040 9:-1.152497
0.037911 1:2.380672 2:8.263788 3:9.591427 4:18.493102 5:-1.178999 6:0.510981 7:-0.035191 8:0.641120 9:0.928426
10.000000 1:-0.163344 2:-0.320884 3:-0.093724 4:-0.201225 5:-0.883586 6:-0.636305 7:-0.079081 8:-0.728844 9:-0.805367
10.000000 1:-0.163281 2:-0.279577 3:-0.093724 4:-0.194550 5:0.537950 6:-0.636305 7:-0.059683 8:-0.365147 9:0.922009
10.000000 1:-0.162454 2:-0.393957 3:-0.092610 4:-0.169862 5:-0.787039 6:-0.420331 7:-0.079081 8:-0.253035 9:-0.805367
10.000000 1:-0.156475 2:-0.114025 3:-0.089956 4:-0.088515 5:-0.241622 6:-0.614666 7:-0.064339 8:-0.560067 9:0.928426
4.594467 1:-0.162263 2:-0.297941 3:-0.093552 4:-0.206929 5:-0.176195 6:2.372876 7:-0.067442 8:-0.070449 9:0.928426
10.000000 1:-0.163111 2:-0.210842 3:-0.092953 4:-0.154759 5:0.108858 6:-0.636305 7:-0.071770 8:-0.741062 9:0.928426
10.000000 1:-0.163026 2:-0.070823 3:-0.093552 4:-0.192161 5:0.365958 6:-0.455165 7:-0.070816 8:0.953372 9:0.928426
10.000000 1:-0.162708 2:-0.264121 3:-0.092696 4:-0.144618 5:-0.131889 6:-0.540317 7:-0.059166 8:0.711761 9:0.928426
10.000000 1:-0.159613 2:0.024834 3:-0.093638 4:-0.215047 5:0.236116 6:2.300953 7:-0.068218 8:-0.076125 9:0.928426
10.000000 1:-0.161775 2:-0.099172 3:-0.092525 4:-0.144678 5:0.422921 6:-0.577964 7:-0.073341 8:-0.889191 9:-0.984867
10.000000 1:-0.163175 2:-0.284462 3:-0.093638 4:-0.190698 5:-0.246794 6:-0.274025 7:-0.059683 8:-0.008924 9:0.928426
10.000000 1:-0.163450 2:-0.111455 3:-0.093124 4:-0.151463 5:0.050204 6:0.024324 7:-0.071675 8:-0.308024 9:-1.154885
0.020755 1:12.948621 2:0.000583 3:1.439797 4:0.365437 5:-2.385919 6:-0.631573 7:-0.065502 8:1.247173 9:0.928423
10.000000 1:-0.161987 2:-0.330330 3:-0.092953 4:-0.175126 5:0.502765 6:-0.581432 7:-0.064401 8:-0.397180 9:0.928426
10.000000 1:-0.162751 2:-0.120735 3:-0.093210 4:-0.178061 5:0.122908 6:-0.514233 7:-0.070440 8:0.412752 9:0.928426
10.000000 1:-0.163620 2:-0.155206 3:-0.093638 4:-0.211083 5:0.558721 6:2.497842 7:-0.078037 8:0.710257 9:0.928426
10.000000 1:-0.163196 2:-0.269928 3:-0.093467 4:-0.195571 5:-0.004975 6:-0.340761 7:-0.062108 8:-0.348676 9:0.928426
10.000000 1:-0.158213 2:-0.112233 3:-0.092867 4:-0.148780 5:-0.166631 6:-0.563849 7:-0.046986 8:-0.161138 9:0.928426
10.000000 1:-0.161902 2:-0.270206 3:-0.091668 4:-0.161577 5:0.214996 6:-0.575357 7:-0.073481 8:-0.472046 9:0.928426
0.021475 1:0.752516 2:-0.693604 3:-0.093295 4:-0.201921 5:0.024654 6:-0.631999 7:12.250457 8:-0.537003 9:0.928426
10.000000 1:-0.159973 2:-0.223602 3:-0.093039 4:-0.137352 5:0.341598 6:-0.322079 7:-0.063345 8:0.181829 9:0.928426
10.000000 1:-0.158998 2:0.449465 3:-0.093039 4:-0.166119 5:-0.155456 6:0.718274 7:-0.076487 8:0.152262 9:-0.805367
10.000000 1:-0.160948 2:-0.180462 3:-0.093039 4:-0.189436 5:0.770864 6:-0.609309 7:-0.074076 8:-1.149736 9:-1.154943
10.000000 1:-0.161945 2:-0.294977 3:-0.090983 4:-0.105471 5:-0.366410 6:-0.435757 7:-0.060410 8:-0.041694 9:0.928426
10.000000 1:-0.155520 2:0.095485 3:-0.092696 4:-0.109511 5:0.929465 6:-0.396077 7:-0.062956 8:-0.824384 9:-0.805367
10.000000 1:-0.163429 2:-0.261042 3:-0.092696 4:-0.086418 5:0.022465 6:-0.295981 7:-0.064268 8:-0.062981 9:0.928426
0.010634 1:1.681183 2:5.720600 3:7.359699 4:6.286097 5:-2.250567 6:0.142202 7:-0.067042 8:-2.000892 9:0.928426
10.000000 1:-0.162030 2:-0.031333 3:-0.093467 4:-0.201407 5:0.139090 6:1.981375 7:-0.074555 8:-0.090768 9:0.928426
10.000000 1:-0.162963 2:-0.112757 3:-0.093638 4:-0.184180 5:-0.332133 6:-0.220354 7:-0.070029 8:-0.985528 9:0.189894
10.000000 1:-0.162899 2:-0.183738 3:-0.093638 4:-0.195483 5:0.285286 6:-0.315428 7:-0.065502 8:-0.016519 9:0.928426
10.000000 1:-0.163111 2:-0.126437 3:-0.092953 4:-0.174634 5:0.106049 6:-0.636305 7:-0.079081 8:-1.005079 9:0.928426
10.000000 1:-0.163132 2:-0.133511 3:-0.092953 4:-0.157458 5:0.227356 6:-0.636305 7:-0.072563 8:-0.392648 9:0.925832
10.000000 1:-0.158510 2:-0.200902 3:-0.092525 4:-0.148391 5:0.532143 6:1.019215 7:-0.065813 8:0.400811 9:-0.805367
0.000621 1:7.435268 2:0.156590 3:-0.092867 4:-0.210154 5:-0.843604 6:-0.602560 7:6.438736 8:-1.206158 9:0.928426
10.000000 1:-0.161818 2:-0.222240 3:-0.093039 4:-0.164195 5:1.733019 6:1.163312 7:-0.069806 8:-1.835574 9:-0.805367
10.000000 1:-0.154206 2:0.381812 3:-0.092610 4:-0.113731 5:0.462059 6:-0.636305 7:-0.053353 8:0.740847 9:0.928426
10.000000 1:-0.161945 2:0.050694 3:-0.090983 4:-0.006339 5:-0.778371 6:-0.045216 7:-0.073650 8:0.514139 9:0.923134
10.000000 1:-0.159613 2:0.027136 3:-0.093638 4:-0.215047 5:0.227802 6:2.300953 7:-0.068218 8:-0.068908 9:0.928426
10.000000 1:-0.162326 2:-0.438599 3:-0.093039 4:-0.085842 5:0.371440 6:-0.553727 7:0.005250 8:0.068623 9:0.928426
0.028676 1:2.233718 2:7.121355 3:9.591427 4:8.028323 5:-2.197938 6:1.112294 7:-0.065968 8:-1.373191 9:0.928426
0.036962 1:4.664513 2:0.604648 3:19.322737 4:2.215401 5:-2.405187 6:-0.636305 7:-0.051924 8:0.859275 9:0.928426
10.000000 1:-0.162644 2:-0.352869 3:-0.093124 4:-0.175659 5:0.096779 6:-0.636305 7:-0.069382 8:0.221116 9:-0.805367
10.000000 1:-0.163874 2:-0.184417 3:-0.093295 4:-0.152364 5:0.193706 6:-0.636305 7:-0.074289 8:0.246230 9:0.378491
10.000000 1:-0.163599 2:-0.205352 3:-0.093724 4:-0.128340 5:0.247149 6:-0.636305 7:-0.062787 8:-0.202493 9:0.927930
10.000000 1:-0.161966 2:-0.403831 3:-0.092867 4:-0.081710 5:0.349902 6:-0.552806 7:0.011976 8:0.118550 9:0.928426
0.036818 1:9.196236 2:0.000583 3:-0.084132 4:-0.022727 5:-1.244829 6:-0.628232 7:19.786683 8:1.660135 9:0.928426
10.000000 1:-0.163450 2:-0.355358 3:-0.092696 4:-0.103442 5:0.266509 6:-0.220354 7:-0.059683 8:0.407335 9:0.923378
10.000000 1:-0.161436 2:-0.232710 3:-0.092867 4:-0.142783 5:0.202092 6:0.675692 7:-0.077652 8:0.372824 9:-0.805367
0.124794 1:-0.153167 2:-0.693604 3:-0.093809 4:-0.159628 5:2.375144 6:-0.381062 7:0.029549 8:-3.716933 9:0.928426
10.000000 1:-0.162305 2:-0.326565 3:-0.093039 4:-0.178253 5:0.337526 6:-0.636305 7:-0.065615 8:0.171632 9:0.928426
10.000000 1:-0.162899 2:-0.163941 3:-0.093295 4:-0.181009 5:0.658622 6:-0.538647 7:-0.070213 8:-0.672233 9:-1.154943
10.000000 1:-0.160800 2:-0.205448 3:-0.092782 4:-0.151656 5:0.132389 6:-0.511056 7:-0.069440 8:0.023575 9:0.928426
10.000000 1:-0.154227 2:-0.102500 3:-0.092867 4:-0.170526 5:-0.359699 6:1.198237 7:-0.076490 8:0.662612 9:-0.805367
10.000000 1:-0.162178 2:-0.435012 3:-0.092867 4:-0.073901 5:0.384702 6:-0.513789 7:0.005250 8:0.147820 9:0.928426
10.000000 1:-0.161351 2:-0.169251 3:-0.092867 4:-0.142752 5:0.186387 6:0.654138 7:-0.077796 8:0.768334 9:-0.805367
10.000000 1:-0.162878 2:-0.224612 3:-0.093467 4:-0.180070 5:-0.326900 6:2.910230 7:-0.079081 8:0.023669 9:-0.805367
10.000000 1:-0.161521 2:-0.165775 3:-0.093039 4:-0.183055 5:0.635824 6:-0.636305 7:-0.069688 8:0.410255 9:-1.114582
10.000000 1:-0.162623 2:-0.166728 3:-0.092525 4:-0.200354 5:-0.233013 6:-0.636305 7:-0.071001 8:0.290294 9:0.928426
0.019735 1:2.658212 2:3.463002 3:11.305901 4:4.067758 5:-2.357954 6:0.521860 7:-0.065869 8:-1.989836 9:0.928426
10.000000 1:-0.162369 2:-0.253207 3:-0.093552 4:-0.181221 5:0.151974 6:-0.547173 7:-0.066408 8:0.821537 9:0.928426
10.000000 1:-0.152807 2:-0.058001 3:-0.092867 4:-0.181376 5:0.127996 6:1.847917 7:-0.064240 8:0.501944 9:-0.805367
10.000000 1:-0.159231 2:-0.250218 3:-0.093381 4:-0.194260 5:0.520844 6:1.136962 7:-0.042871 8:-0.168962 9:-1.154943
10.000000 1:-0.160800 2:-0.164560 3:-0.092353 4:-0.153219 5:0.361006 6:-0.488876 7:-0.069767 8:0.348700 9:0.928426
0.025021 1:1.714619 2:0.775947 3:7.371089 4:0.931461 5:-2.406365 6:-0.204356 7:-0.054941 8:-1.200081 9:0.928426
10.000000 1:-0.162602 2:-0.240008 3:-0.093124 4:-0.151919 5:-0.552582 6:-0.572495 7:-0.073989 8:-0.440452 9:0.928426
10.000000 1:-0.160206 2:-0.280908 3:-0.089099 4:-0.140196 5:0.393599 6:-0.615781 7:-0.069256 8:0.358685 9:0.928426
10.000000 1:-0.162772 2:-0.143813 3:-0.093210 4:-0.160099 5:0.045728 6:-0.580708 7:-0.068636 8:0.816015 9:0.928426
10.000000 1:-0.159931 2:-0.166406 3:-0.093467 4:-0.173210 5:-0.449816 6:-0.636305 7:-0.076366 8:0.321610 9:0.928419
0.019365 1:0.682463 2:5.916714 3:3.325804 4:11.034529 5:-0.294446 6:0.418616 7:-0.059479 8:1.878953 9:-0.805367
10.000000 1:-0.163047 2:-0.300220 3:-0.093467 4:-0.200046 5:0.432643 6:-0.529346 7:-0.065000 8:-0.693493 9:0.928426
10.000000 1:-0.014079 2:-0.693604 3:-0.091925 4:-0.105374 5:0.069736 6:-0.628048 7:0.056707 8:-0.577170 9:-0.805367
10.000000 1:-0.151004 2:-0.571241 3:-0.085845 4:-0.184887 5:-2.033977 6:-0.632146 7:-0.078953 8:0.490765 9:-0.805367
10.000000 1:-0.164023 2:-0.050625 3:-0.093724 4:-0.181063 5:-0.267449 6:-0.636305 7:-0.070029 8:-1.838003 9:-0.805367
10.000000 1:-0.152679 2:-0.191064 3:-0.092353 4:-0.140157 5:-0.524592 6:1.172439 7:-0.078706 8:0.313275 9:-0.805367
10.000000 1:-0.162263 2:-0.438137 3:-0.093210 4:-0.072725 5:0.371440 6:-0.515111 7:0.005250 8:0.037598 9:0.928426
0.038565 1:2.678418 2:0.000583 3:10.218383 4:11.366130 5:-2.221796 6:-0.348449 7:0.898591 8:1.516714 9:0.928426
10.000000 1:-0.162729 2:-0.337348 3:-0.093467 4:-0.195359 5:-0.077864 6:-0.466143 7:-0.065502 8:0.610491 9:0.928426
10.000000 1:-0.162326 2:-0.249937 3:-0.093552 4:-0.186371 5:0.475508 6:0.126946 7:-0.077484 8:-1.344999 9:-0.805367
0.037538 1:6.227959 2:13.808757 3:-0.066748 4:0.024188 5:-1.952074 6:-0.227771 7:-0.064174 8:1.961668 9:0.928426
10.000000 1:-0.161733 2:-0.405705 3:-0.093039 4:-0.072114 5:0.336626 6:-0.552494 7:0.011976 8:0.162348 9:0.928426
10.000000 1:-0.163259 2:-0.232534 3:-0.093381 4:-0.196340 5:0.370239 6:-0.636305 7:-0.071770 8:-0.883593 9:0.928426
10.000000 1:-0.162263 2:-0.300667 3:-0.092867 4:-0.162399 5:0.387871 6:-0.599723 7:-0.067393 8:-0.794570 9:0.928426
10.000000 1:-0.163111 2:-0.327495 3:-0.093210 4:-0.181548 5:-0.088603 6:-0.484539 7:-0.060976 8:0.722704 9:0.928426
10.000000 1:-0.162602 2:-0.218636 3:-0.092525 4:-0.146556 5:0.222310 6:-0.612662 7:-0.073574 8:-0.353228 9:0.928426
10.000000 1:-0.162963 2:-0.336476 3:-0.093552 4:-0.182316 5:-0.519198 6:-0.463526 7:-0.074144 8:-0.728105 9:0.189894
2.306606 1:-0.132876 2:0.000583 3:-0.091668 4:-0.134866 5:-0.169283 6:-0.582826 7:0.233231 8:0.563708 9:0.928426
10.000000 1:-0.161924 2:-0.406720 3:-0.093039 4:-0.076454 5:0.336626 6:-0.509166 7:0.011976 8:0.173402 9:0.928426
10.000000 1:-0.163471 2:-0.030684 3:-0.093724 4:-0.185188 5:0.606440 6:-0.636305 7:-0.069382 8:-0.308710 9:0.928415
10.000000 1:-0.160439 2:-0.012371 3:-0.086016 4:0.263068 5:-1.023145 6:-0.636305 7:-0.060976 8:-0.485396 9:0.928426
0.032795 1:0.534958 2:2.570643 3:2.728821 4:8.887210 5:-1.534855 6:-0.551766 7:-0.069617 8:2.652801 9:0.928426
10.000000 1:-0.162984 2:-0.275088 3:-0.093381 4:-0.163416 5:0.240435 6:-0.125819 7:-0.060976 8:0.256556 9:0.928426
10.000000 1:-0.161500 2:-0.213867 3:-0.092696 4:-0.135948 5:0.478930 6:-0.506792 7:-0.066429 8:0.422905 9:0.928426
0.038373 1:9.970273 2:5.172873 3:-0.080707 4:-0.111219 5:-0.214422 6:1.814118 7:4.739292 8:-0.173024 9:-0.805367
10.000000 1:-0.157959 2:0.023997 3:-0.093124 4:-0.159870 5:0.118569 6:0.626476 7:-0.072874 8:0.334026 9:-0.805367
10.000000 1:-0.156072 2:0.136725 3:-0.092867 4:-0.138939 5:0.227503 6:-0.636305 7:-0.056073 8:0.900527 9:0.881769
10.000000 1:-0.162666 2:-0.335695 3:-0.093124 4:-0.167223 5:-0.765329 6:-0.594710 7:-0.078402 8:-0.024066 9:-0.805367
10.000000 1:-0.160503 2:-0.217412 3:-0.089099 4:-0.166659 5:0.565762 6:-0.520977 7:-0.063145 8:0.623564 9:0.928426
10.000000 1:-0.162560 2:-0.344189 3:-0.092953 4:-0.169612 5:-0.065226 6:-0.285346 7:-0.059330 8:0.646879 9:0.928426
10.000000 1:-0.163005 2:-0.145085 3:-0.093210 4:-0.189653 5:0.423377 6:2.608118 7:-0.074289 8:0.235285 9:0.928426
10.000000 1:-0.152722 2:0.063133 3:-0.093467 4:-0.174475 5:0.031500 6:-0.352764 7:-0.065183 8:0.274383 9:0.928426
10.000000 1:-0.162008 2:-0.423468 3:-0.093039 4:-0.072232 5:0.354152 6:-0.553727 7:0.008426 8:0.044490 9:0.928426
7.620126 1:-0.155542 2:-0.028589 3:-0.092696 4:-0.138316 5:-0.092370 6:0.265986 7:-0.071042 8:0.446786 9:0.928426
10.000000 1:-0.161839 2:-0.056245 3:-0.092696 4:-0.167809 5:0.229114 6:-0.362386 7:-0.077384 8:-0.790358 9:0.407483
10.000000 1:-0.163132 2:-0.077490 3:-0.093724 4:-0.149976 5:0.412460 6:-0.220354 7:-0.070934 8:0.528474 9:0.928413
0.039019 1:10.454091 2:0.150928 3:25.159056 4:2.233864 5:-2.406333 6:-0.461509 7:0.065759 8:0.925134 9:0.928426
0.027715 1:7.488740 2:0.000575 3:-0.091925 4:-0.205893 5:-0.311778 6:-0.626359 7:15.658732 8:-1.018739 9:0.928426
10.000000 1:-0.082966 2:0.176089 3:-0.093039 4:-0.165511 5:-0.520084 6:1.021856 7:0.021825 8:0.130787 9:-0.805367
10.000000 1:-0.162602 2:-0.175759 3:-0.092953 4:-0.130658 5:0.632210 6:0.750200 7:-0.073321 8:-0.485475 9:-0.805367
10.000000 1:-0.164044 2:-0.287977 3:-0.093724 4:-0.149391 5:0.720835 6:-0.636305 7:-0.079081 8:-1.058924 9:-0.805367
10.000000 1:-0.163323 2:-0.179664 3:-0.093809 4:-0.242540 5:-0.046848 6:0.112408 7:-0.065502 8:-0.619092 9:0.928417
0.064631 1:-0.162114 2:0.002331 3:-0.094152 4:-0.304756 5:4.215497 6:10.594390 7:0.032567 8:-5.385019 9:0.928426
10.000000 1:-0.162623 2:-0.263142 3:-0.091668 4:-0.138875 5:-0.085336 6:-0.636305 7:-0.068017 8:0.486856 9:0.928426
1.964955 1:-0.162178 2:-0.137499 3:-0.093638 4:-0.206137 5:0.113848 6:1.670540 7:-0.073387 8:0.092702 9:0.928426
10.000000 1:-0.159888 2:-0.272925 3:-0.092439 4:-0.145263 5:0.641371 6:-0.523930 7:-0.061039 8:0.381599 9:0.928426
10.000000 1:-0.161902 2:-0.160590 3:-0.093124 4:-0.180052 5:0.309400 6:-0.500996 7:-0.065502 8:0.767791 9:0.927969
10.000000 1:-0.163153 2:-0.370242 3:-0.093467 4:-0.204284 5:0.256510 6:-0.499346 7:-0.057355 8:-0.506833 9:0.928426
10.000000 1:-0.163344 2:-0.693604 3:-0.093809 4:-0.225297 5:0.080977 6:0.767531 7:-0.051924 8:-0.654715 9:0.769183
1.902307 1:-0.163153 2:0.000583 3:-0.093638 4:-0.180276 5:-0.397398 6:0.486764 7:-0.065502 8:-0.960283 9:0.927411
10.000000 1:-0.148396 2:-0.155575 3:-0.092696 4:-0.146348 5:0.176142 6:-0.589671 7:-0.058860 8:0.658086 9:-1.154943
10.000000 1:-0.162263 2:-0.206622 3:-0.092182 4:-0.159529 5:0.061327 6:-0.626242 7:-0.067981 8:-0.006516 9:-1.154943
10.000000 1:-0.162878 2:-0.044505 3:-0.093724 4:-0.195243 5:-0.268451 6:-0.332773 7:-0.073046 8:-0.625157 9:0.928426
10.000000 1:-0.163302 2:-0.174054 3:-0.093552 4:-0.205640 5:0.138944 6:3.030860 7:-0.073364 8:0.190324 9:0.928426
10.000000 1:-0.162878 2:-0.210777 3:-0.093295 4:-0.183082 5:-0.662425 6:-0.559119 7:-0.062293 8:-0.983702 9:-0.805367
10.000000 1:-0.164192 2:-0.299099 3:-0.093809 4:-0.145645 5:0.811127 6:1.609834 7:-0.065502 8:-1.699514 9:-0.262203
10.000000 1:-0.161881 2:0.137472 3:-0.089784 4:0.080824 5:-0.801490 6:1.091494 7:-0.073650 8:-0.543562 9:-0.805367
0.068846 1:-0.162475 2:-0.216449 3:-0.094152 4:-0.304756 5:4.187460 6:21.825085 7:-0.046986 8:-3.406112 9:0.928426
10.000000 1:-0.163026 2:-0.202638 3:-0.093724 4:-0.139973 5:0.075324 6:-0.101510 7:-0.062787 8:0.027901 9:0.928426
10.000000 1:-0.161966 2:-0.417569 3:-0.093210 4:-0.195563 5:-0.385383 6:-0.334370 7:-0.056683 8:0.047616 9:0.928426
0.671763 1:-0.163620 2:-0.163900 3:-0.093638 4:-0.211052 5:0.531133 6:2.426611 7:-0.078037 8:0.724642 9:0.928426
10.000000 1:-0.163365 2:-0.145025 3:-0.093124 4:-0.168820 5:0.509932 6:-0.381062 7:-0.071770 8:-0.045034 9:0.928426
10.000000 1:-0.162963 2:-0.198860 3:-0.093381 4:-0.180278 5:1.016512 6:-0.636305 7:-0.072745 8:-1.018132 9:-1.111699
10.000000 1:-0.162963 2:-0.252636 3:-0.093039 4:-0.165802 5:0.262829 6:0.361979 7:-0.079081 8:-0.003378 9:-0.805367
10.000000 1:-0.145280 2:-0.053010 3:-0.092525 4:-0.156564 5:-0.165792 6:0.791771 7:-0.077099 8:0.530858 9:-0.805367
10.000000 1:-0.161924 2:0.029964 3:-0.092525 4:-0.107574 5:-0.258921 6:-0.074771 7:-0.062787 8:-0.545994 9:0.928426
10.000000 1:-0.161563 2:-0.244665 3:-0.092953 4:-0.174929 5:0.367848 6:-0.565545 7:-0.073459 8:-0.464549 9:0.928426
10.000000 1:-0.161902 2:-0.270227 3:-0.091668 4:-0.161592 5:0.214903 6:-0.575357 7:-0.073481 8:-0.470173 9:0.928426
10.000000 1:-0.163429 2:-0.353231 3:-0.092696 4:-0.085012 5:-0.046848 6:-0.636305 7:-0.060976 8:-0.215066 9:0.928426
10.000000 1:-0.162072 2:-0.249782 3:-0.093124 4:-0.185911 5:0.065955 6:-0.504418 7:-0.074466 8:-0.162829 9:0.928426
10.000000 1:-0.160291 2:-0.204546 3:-0.093295 4:-0.183676 5:0.375000 6:-0.598184 7:-0.068185 8:0.424844 9:0.928426
10.000000 1:-0.162941 2:0.000583 3:-0.093724 4:-0.187376 5:-0.225130 6:0.486764 7:-0.051924 8:0.094686 9:0.928426
10.000000 1:-0.162963 2:-0.238980 3:-0.093638 4:-0.195873 5:-0.403895 6:-0.381062 7:-0.060280 8:0.092652 9:0.928426
10.000000 1:-0.156326 2:-0.067610 3:-0.092782 4:-0.135556 5:0.039991 6:-0.353060 7:-0.067818 8:0.211385 9:0.928426
10.000000 1:-0.158913 2:-0.229119 3:-0.092268 4:-0.129935 5:0.727410 6:0.109134 7:-0.071210 8:-0.168610 9:-0.805367
10.000000 1:-0.163005 2:-0.371597 3:-0.093552 4:-0.148199 5:0.628267 6:-0.576884 7:-0.057885 8:0.129884 9:0.928426
4.136838 1:-0.044695 2:-0.693604 3:0.387562 4:0.187452 5:-2.399845 6:-0.636305 7:-0.051924 8:-3.030673 9:0.094949
0.826458 1:-0.151004 2:-0.561742 3:-0.085845 4:-0.174475 5:-2.023857 6:-0.630636 7:-0.078918 8:0.569178 9:-0.805367
10.000000 1:-0.161500 2:-0.386603 3:-0.092867 4:-0.069470 5:0.318858 6:-0.513342 7:0.015970 8:0.085637 9:0.928426
2.552308 1:-0.162644 2:-0.693604 3:-0.093638 4:-0.195672 5:0.575759 6:0.384667 7:0.002391 8:-0.831249 9:0.176717
10.000000 1:-0.162369 2:-0.187512 3:-0.093552 4:-0.195995 5:0.671909 6:1.191947 7:-0.063034 8:-0.155448 9:-0.738355
10.000000 1:-0.158807 2:-0.155024 3:-0.093467 4:-0.185827 5:1.014668 6:2.092475 7:-0.074717 8:-1.289170 9:-1.154941
10.000000 1:-0.157916 2:0.160386 3:-0.093210 4:-0.169104 5:-0.391975 6:0.144960 7:-0.076064 8:0.077539 9:0.928426
10.000000 1:-0.162517 2:-0.238323 3:-0.093124 4:-0.177406 5:0.037247 6:-0.563849 7:-0.075335 8:0.217809 9:-1.154637
0.011438 1:1.197640 2:8.049156 3:0.725918 4:2.003987 5:-1.098472 6:0.925371 7:-0.065494 8:1.919863 9:0.928426
1.786093 1:-0.159273 2:-0.129785 3:-0.093638 4:-0.112714 5:-0.469594 6:-0.416096 7:-0.033819 8:-2.951652 9:0.928426
0.162386 1:0.223325 2:2.797362 3:1.319219 4:2.888783 5:-2.077414 6:-0.584551 7:-0.069875 8:1.114335 9:-1.154533
10.000000 1:-0.161076 2:-0.265994 3:-0.093124 4:-0.173060 5:0.034311 6:-0.065253 7:-0.068663 8:0.079217 9:0.928426
10.000000 1:-0.162051 2:-0.254200 3:-0.093124 4:-0.164340 5:-0.076647 6:-0.526916 7:-0.061189 8:0.720391 9:0.928426
0.038070 1:9.463704 2:-0.693604 3:7.321076 4:2.168899 5:-2.390937 6:-0.628261 7:-0.051924 8:1.274412 9:0.928423
10.000000 1:-0.163493 2:0.000583 3:-0.093724 4:-0.196929 5:-0.151664 6:2.572465 7:-0.079081 8:-0.526497 9:-0.805367
10.000000 1:-0.162072 2:-0.078147 3:-0.093467 4:-0.202489 5:0.262684 6:-0.636305 7:-0.069681 8:0.324711 9:-1.154943
10.000000 1:-0.162984 2:-0.274150 3:-0.091326 4:-0.059395 5:-0.342932 6:-0.424406 7:-0.059330 8:0.234794 9:0.928426
0.012930 1:9.977355 2:-0.693604 3:0.229132 4:0.070735 5:-2.146153 6:-0.634478 7:0.328282 8:1.181613 9:0.928426
0.037642 1:10.276860 2:0.156592 3:-0.093039 4:-0.201442 5:-0.187978 6:-0.553184 7:34.782190 8:-0.638698 9:0.928426
0.020791 1:2.418497 2:0.000560 3:-0.092953 4:-0.204153 5:-0.179609 6:-0.561313 7:14.504535 8:-0.535978 9:0.928426
10.000000 1:-0.161966 2:-0.422546 3:-0.092525 4:-0.067027 5:0.354152 6:-0.554330 7:0.008426 8:0.061714 9:0.928426
0.020685 1:2.696927 2:7.054712 3:-0.073684 4:-0.123226 5:0.406904 6:-0.376652 7:-0.016096 8:0.928983 9:0.928426
10.000000 1:-0.162984 2:-0.219156 3:-0.093638 4:-0.200277 5:0.205042 6:-0.235209 7:-0.062108 8:-0.199252 9:0.928426
10.000000 1:-0.163408 2:-0.353433 3:-0.093210 4:-0.149444 5:0.203046 6:-0.220354 7:-0.058713 8:0.399659 9:0.928317
10.000000 1:-0.155648 2:-0.133509 3:-0.092525 4:-0.159801 5:-0.159399 6:0.848776 7:-0.077081 8:0.408395 9:-0.805367
10.000000 1:-0.162602 2:-0.212602 3:-0.092525 4:-0.147820 5:0.182950 6:-0.610665 7:-0.074068 8:-0.441521 9:0.927846
10.000000 1:-0.155520 2:-0.184529 3:-0.092525 4:-0.159890 5:0.330354 6:0.853036 7:-0.077073 8:-0.450072 9:-0.805367
0.006794 1:2.295459 2:7.892768 3:0.316226 4:0.913531 5:-1.493823 6:0.323973 7:-0.070138 8:1.244365 9:0.928426
10.000000 1:-0.161860 2:-0.233649 3:-0.092353 4:-0.146964 5:0.495850 6:-0.517647 7:-0.074903 8:-0.739454 9:-1.154943
10.000000 1:-0.161945 2:-0.054483 3:-0.090983 4:-0.006339 5:-0.807185 6:-0.045216 7:-0.072292 8:0.514139 9:0.923134
10.000000 1:-0.158637 2:0.478661 3:-0.089185 4:0.004638 5:-0.528321 6:-0.636305 7:-0.070852 8:1.432369 9:0.928361
10.000000 1:-0.164044 2:-0.359198 3:-0.093724 4:-0.149391 5:0.679969 6:-0.636305 7:-0.079081 8:-1.009534 9:-0.805367
10.000000 1:-0.163175 2:-0.285586 3:-0.093724 4:-0.193895 5:0.093304 6:-0.416096 7:-0.064458 8:0.325707 9:0.928426
10.000000 1:-0.164086 2:-0.422146 3:-0.093809 4:-0.195484 5:0.307575 6:-0.101510 7:-0.079081 8:0.190043 9:-0.805367
0.315008 1:-0.124692 2:0.155242 3:-0.093809 4:-0.241249 5:3.924644 6:-0.148014 7:-0.042871 8:-8.233741 9:0.928426
10.000000 1:-0.162623 2:-0.318133 3:-0.092867 4:-0.176550 5:0.887519 6:-0.538160 7:-0.063772 8:-0.435018 9:-0.805367
0.028044 1:7.578766 2:2.586057 3:14.679784 4:2.818372 5:-2.349108 6:-0.619054 7:-0.077901 8:0.926307 9:0.928426
10.000000 1:-0.162432 2:-0.448544 3:-0.092867 4:-0.069580 5:0.401748 6:-0.555509 7:0.002391 8:0.042781 9:0.928426
2.587344 1:-0.162326 2:-0.435839 3:-0.093039 4:-0.074555 5:0.384702 6:-0.510118 7:0.005250 8:0.122352 9:0.928426
10.000000 1:-0.162242 2:-0.097843 3:-0.093552 4:-0.193863 5:0.189687 6:2.171368 7:-0.069808 8:0.342484 9:0.928346
10.000000 1:-0.162157 2:-0.303657 3:-0.093124 4:-0.164739 5:0.610218 6:-0.346214 7:-0.063268 8:0.177686 9:0.928426
10.000000 1:-0.160800 2:-0.202560 3:-0.090298 4:-0.048281 5:-0.636549 6:-0.439276 7:-0.059683 8:1.141700 9:0.928426
10.000000 1:-0.126261 2:0.149614 3:-0.090983 4:-0.105053 5:0.057122 6:-0.609047 7:0.017479 8:0.916530 9:0.928426
0.009663 1:2.233739 2:3.727409 3:9.591427 4:5.286454 5:-2.293743 6:1.428625 7:-0.057924 8:-1.727761 9:0.928421
10.000000 1:-0.161945 2:-0.123020 3:-0.090983 4:-0.061388 5:-0.710785 6:-0.636305 7:-0.072292 8:0.524550 9:0.928423
10.000000 1:-0.143350 2:0.020315 3:-0.093638 4:-0.195829 5:0.010414 6:-0.628335 7:-0.065331 8:-0.860697 9:0.928426
10.000000 1:-0.161478 2:-0.265331 3:-0.091668 4:-0.180784 5:0.815550 6:-0.498354 7:-0.068044 8:0.366001 9:0.928426
10.000000 1:-0.163111 2:-0.127032 3:-0.092953 4:-0.174246 5:0.111300 6:-0.636305 7:-0.079081 8:-1.016335 9:0.928426
10.000000 1:-0.163090 2:-0.186071 3:-0.093210 4:-0.186486 5:0.187441 6:-0.636305 7:-0.067243 8:0.796529 9:0.928426
10.000000 1:-0.162305 2:-0.221676 3:-0.093039 4:-0.183022 5:0.808156 6:-0.592776 7:-0.062701 8:0.043939 9:0.928426
0.038086 1:15.501733 2:0.604434 3:-0.092953 4:-0.211933 5:-0.776241 6:-0.618398 7:5.786954 8:-0.951249 9:0.928426
10.000000 1:-0.163047 2:-0.276019 3:-0.093210 4:-0.201331 5:-0.118272 6:-0.636305 7:-0.056328 8:-0.024723 9:0.928426
10.000000 1:-0.162687 2:-0.114604 3:-0.092782 4:-0.147263 5:-0.038605 6:-0.442673 7:-0.073262 8:-0.740951 9:0.927367
10.000000 1:-0.160842 2:-0.280759 3:-0.093039 4:-0.172061 5:0.163039 6:-0.111765 7:-0.065664 8:-0.125833 9:0.928426
10.000000 1:-0.162899 2:-0.119943 3:-0.093381 4:-0.152269 5:-0.091095 6:-0.148014 7:-0.067442 8:-0.275182 9:0.927753
0.528659 1:-0.086167 2:1.291425 3:-0.092610 4:-0.120067 5:0.025392 6:-0.126092 7:-0.045406 8:2.117141 9:-0.805367
10.000000 1:-0.161987 2:-0.172944 3:-0.092867 4:-0.176000 5:0.138846 6:-0.590089 7:-0.073650 8:0.029427 9:-1.154943
10.000000 1:-0.158404 2:0.000583 3:-0.093638 4:-0.155857 5:0.109627 6:-0.386734 7:0.029549 8:0.630819 9:0.928426
10.000000 1:-0.160842 2:-0.281032 3:-0.093039 4:-0.171921 5:0.155924 6:-0.117882 7:-0.065664 8:-0.126305 9:0.928426
10.000000 1:-0.163620 2:0.005961 3:-0.093467 4:-0.200156 5:0.377030 6:-0.636305 7:-0.077271 8:-0.773991 9:-0.591905
10.000000 1:-0.163005 2:-0.390442 3:-0.093552 4:-0.148629 5:0.612784 6:-0.577197 7:-0.057355 8:0.158405 9:0.928426
10.000000 1:-0.162072 2:-0.423581 3:-0.092867 4:-0.077963 5:0.354152 6:-0.552494 7:0.008426 8:0.085579 9:0.928426
10.000000 1:-0.162220 2:-0.207091 3:-0.093809 4:-0.171057 5:0.519841 6:-0.636305 7:-0.058713 8:-0.371055 9:0.928415
10.000000 1:-0.163556 2:-0.354032 3:-0.093809 4:-0.148157 5:0.343354 6:-0.636305 7:-0.062787 8:0.075259 9:0.928426
10.000000 1:-0.162538 2:-0.149813 3:-0.093724 4:-0.185133 5:0.241051 6:2.251588 7:-0.073364 8:0.353508 9:0.928426
10.000000 1:-0.157747 2:-0.054942 3:-0.093039 4:-0.172286 5:0.124214 6:1.552227 7:-0.075219 8:0.099011 9:-0.805367
0.396931 1:2.196126 2:1.489818 3:-0.088243 4:-0.074208 5:-0.968673 6:-0.635153 7:-0.072292 8:1.198970 9:-0.805367
10.000000 1:-0.157959 2:-0.049175 3:-0.093039 4:-0.173027 5:0.120560 6:1.561910 7:-0.075223 8:0.056806 9:-0.805367
10.000000 1:-0.162008 2:-0.203723 3:-0.093039 4:-0.169468 5:0.424241 6:-0.563716 7:-0.074226 8:-0.416157 9:0.928426
10.000000 1:-0.152807 2:-0.058172 3:-0.092867 4:-0.181371 5:0.126441 6:1.843794 7:-0.064254 8:0.502626 9:-0.805367
10.000000 1:-0.161881 2:0.031057 3:-0.089784 4:0.080824 5:-0.832970 6:1.091494 7:-0.072292 8:-0.543562 9:-0.805367
0.038265 1:3.474845 2:0.000583 3:-0.090555 4:-0.124361 5:-0.688023 6:-0.612794 7:32.632215 8:0.567764 9:0.928426
10.000000 1:-0.162326 2:-0.155690 3:-0.091497 4:-0.121699 5:0.252706 6:-0.402333 7:-0.074976 8:-0.816512 9:-1.154943
10.000000 1:-0.162729 2:0.084190 3:-0.093895 4:-0.243869 5:0.333847 6:-0.636305 7:-0.055803 8:-0.271266 9:0.928426
10.000000 1:-0.163408 2:-0.251888 3:-0.093039 4:-0.145457 5:0.703064 6:-0.490452 7:-0.064597 8:0.585826 9:0.928426
10.000000 1:-0.145704 2:0.012847 3:-0.093638 4:-0.191960 5:0.092542 6:-0.628054 7:-0.065502 8:-0.958517 9:0.928426
10.000000 1:-0.162941 2:-0.219299 3:-0.093638 4:-0.210645 5:0.317276 6:1.962533 7:-0.072292 8:0.111671 9:0.928426
